{"learner":{"attributes":{"scikit_learn":"{\"_estimator_type\": \"classifier\"}"},"feature_names":[],"feature_types":[],"gradient_booster":{"model":{"cats":{"enc":[],"feature_segments":[],"sorted_idx":[]},"gbtree_model_param":{"num_parallel_tree":"1","num_trees":"293"},"iteration_indptr":[0,1,2,3,4,5,6,7,8,9,10,11,12,13,14,15,16,17,18,19,20,21,22,23,24,25,26,27,28,29,30,31,32,33,34,35,36,37,38,39,40,41,42,43,44,45,46,47,48,49,50,51,52,53,54,55,56,57,58,59,60,61,62,63,64,65,66,67,68,69,70,71,72,73,74,75,76,77,78,79,80,81,82,83,84,85,86,87,88,89,90,91,92,93,94,95,96,97,98,99,100,101,102,103,104,105,106,107,108,109,110,111,112,113,114,115,116,117,118,119,120,121,122,123,124,125,126,127,128,129,130,131,132,133,134,135,136,137,138,139,140,141,142,143,144,145,146,147,148,149,150,151,152,153,154,155,156,157,158,159,160,161,162,163,164,165,166,167,168,169,170,171,172,173,174,175,176,177,178,179,180,181,182,183,184,185,186,187,188,189,190,191,192,193,194,195,196,197,198,199,200,201,202,203,204,205,206,207,208,209,210,211,212,213,214,215,216,217,218,219,220,221,222,223,224,225,226,227,228,229,230,231,232,233,234,235,236,237,238,239,240,241,242,243,244,245,246,247,248,249,250,251,252,253,254,255,256,257,258,259,260,261,262,263,264,265,266,267,268,269,270,271,272,273,274,275,276,277,278,279,280,281,282,283,284,285,286,287,288,289,290,291,292,293],"tree_info":[0,0,0,0,0,0,0,0,0,0,0,0,0,0,0,0,0,0,0,0,0,0,0,0,0,0,0,0,0,0,0,0,0,0,0,0,0,0,0,0,0,0,0,0,0,0,0,0,0,0,0,0,0,0,0,0,0,0,0,0,0,0,0,0,0,0,0,0,0,0,0,0,0,0,0,0,0,0,0,0,0,0,0,0,0,0,0,0,0,0,0,0,0,0,0,0,0,0,0,0,0,0,0,0,0,0,0,0,0,0,0,0,0,0,0,0,0,0,0,0,0,0,0,0,0,0,0,0,0,0,0,0,0,0,0,0,0,0,0,0,0,0,0,0,0,0,0,0,0,0,0,0,0,0,0,0,0,0,0,0,0,0,0,0,0,0,0,0,0,0,0,0,0,0,0,0,0,0,0,0,0,0,0,0,0,0,0,0,0,0,0,0,0,0,0,0,0,0,0,0,0,0,0,0,0,0,0,0,0,0,0,0,0,0,0,0,0,0,0,0,0,0,0,0,0,0,0,0,0,0,0,0,0,0,0,0,0,0,0,0,0,0,0,0,0,0,0,0,0,0,0,0,0,0,0,0,0,0,0,0,0,0,0,0,0,0,0,0,0,0,0,0,0,0,0,0,0,0,0,0,0,0,0,0,0,0,0,0,0,0,0,0,0],"trees":[{"base_weights":[-6.3492064E-3,-8.1865287E-1,8.374596E-1,1.8867925E-1,-1.1931819E0,1.122807E0,-8.740741E-1,5.7276994E-1,-1.2857143E0,-3.1724137E-1,-1.4103019E0,7.387387E-1,1.0025203E-1,-1.0551181E0,6.7934856E-2,1.220339E0,-2.2222222E-1,-1.4509804E0,1.1322475E-2,-1.0243902E0,5.671642E-1,-1.5810474E0,-9.6385545E-1,1.2131147E0,-1.761658E-1,-1.2333333E0,6.48469E-2,-1.1322475E-2,7.250739E-2,-5.487046E-2,6.435933E-2,-8.955049E-2,-3.7055373E-2,5.661238E-2,-6.2200088E-2,-2.1615636E-2,6.972261E-2,-8.261642E-2,-0E0,6.7934856E-2,-5.6755695E-2,7.1079984E-2,-8.861068E-3,-2.547557E-2,8.7846786E-2,5.9942515E-3,-7.142683E-2],"categories":[],"categories_nodes":[],"categories_segments":[],"categories_sizes":[],"default_left":[0,0,0,0,0,0,0,0,0,0,0,0,0,0,0,0,0,0,0,0,0,0,0,0,0,0,0,0,0,0,0,0,0,0,0,0,0,0,0,0,0,0,0,0,0,0,0],"id":0,"left_children":[1,3,5,7,9,11,13,15,17,19,21,23,-1,25,-1,27,29,31,-1,33,35,37,39,41,43,45,-1,-1,-1,-1,-1,-1,-1,-1,-1,-1,-1,-1,-1,-1,-1,-1,-1,-1,-1,-1,-1],"loss_changes":[3.2455078E2,9.124272E1,1.1440805E2,3.8253853E1,3.3025055E1,6.327672E1,1.4894606E1,2.7684942E1,3.8113918E0,2.325198E1,9.205292E0,6.043242E1,0E0,1.4741421E1,0E0,8.943863E0,3.2781826E1,1.5508022E0,0E0,9.953896E0,1.3886263E1,6.4091187E0,1.5791771E1,2.333406E1,3.0554314E1,6.9955826E0,0E0,0E0,0E0,0E0,0E0,0E0,0E0,0E0,0E0,0E0,0E0,0E0,0E0,0E0,0E0,0E0,0E0,0E0,0E0,0E0,0E0],"parents":[2147483647,0,0,1,1,2,2,3,3,4,4,5,5,6,6,7,7,8,8,9,9,10,10,11,11,13,13,15,15,16,16,17,17,19,19,20,20,21,21,22,22,23,23,24,24,25,25],"right_children":[2,4,6,8,10,12,14,16,18,20,22,24,-1,26,-1,28,30,32,-1,34,36,38,40,42,44,46,-1,-1,-1,-1,-1,-1,-1,-1,-1,-1,-1,-1,-1,-1,-1,-1,-1,-1,-1,-1,-1],"split_conditions":[1.0173256E0,-4.2937693E-1,1.422001E0,1.422001E0,5.5422825E-1,9.942911E-1,1.7749634E0,6.487775E-1,2.3050494E0,1.2663833E0,1.9336085E-1,-4.271367E-2,1.0025203E-1,9.942911E-1,6.7934856E-2,-8.7334716E-1,1.6071422E0,1.5753499E0,1.1322475E-2,-6.9228524E-1,1.9336085E-1,3.2647994E0,1.5753499E0,1.0670881E0,1.7749634E0,-1.488505E0,6.48469E-2,-1.1322475E-2,7.250739E-2,-5.487046E-2,6.435933E-2,-8.955049E-2,-3.7055373E-2,5.661238E-2,-6.2200088E-2,-2.1615636E-2,6.972261E-2,-8.261642E-2,-0E0,6.7934856E-2,-5.6755695E-2,7.1079984E-2,-8.861068E-3,-2.547557E-2,8.7846786E-2,5.9942515E-3,-7.142683E-2],"split_indices":[39,20,6,6,13,38,37,4,31,29,21,0,0,38,0,1,34,10,0,4,21,17,10,20,37,0,0,0,0,0,0,0,0,0,0,0,0,0,0,0,0,0,0,0,0,0,0],"split_type":[0,0,0,0,0,0,0,0,0,0,0,0,0,0,0,0,0,0,0,0,0,0,0,0,0,0,0,0,0,0,0,0,0,0,0,0,0,0,0,0,0,0,0,0,0,0,0],"sum_hessian":[4.715E2,2.4025E2,2.3125E2,6.525E1,1.75E2,1.985E2,3.275E1,5.225E1,1.3E1,3.525E1,1.3975E2,1.3775E2,6.075E1,3.075E1,2E0,2.85E1,2.375E1,1.175E1,1.25E0,1.95E1,1.575E1,9.925E1,4.05E1,9.05E1,4.725E1,2.9E1,1.75E0,3.5E0,2.5E1,1.525E1,8.5E0,7.25E0,4.5E0,1.25E0,1.825E1,7.25E0,8.5E0,9.675E1,2.5E0,2E0,3.85E1,8E1,1.05E1,4.1E1,6.25E0,3.25E0,2.575E1],"tree_param":{"num_deleted":"0","num_feature":"40","num_nodes":"47","size_leaf_vector":"1"}},{"base_weights":[9.231277E-3,-7.603632E-1,7.9499567E-1,2.0900263E-1,-1.116461E0,1.0830199E0,-7.76817E-1,7.408281E-1,-9.7223437E-1,-1.4001693E0,-5.044518E-1,7.08657E-1,9.557327E-2,1.0667557E0,-9.9784863E-1,3.3382062E-2,1.4392353E0,-1.229349E0,4.99011E-2,-1.593078E0,-9.483048E-1,8.196887E-2,-7.2314054E-1,1.4809187E-1,1.4474183E0,6.8192616E-2,1.0179794E-2,4.4662434E-1,-1.2191693E0,5.118224E-2,-1.8605193E-2,8.604161E-2,1.336256E-2,-1.860747E-2,-8.0331065E-2,-9.0532295E-2,-6.801667E-2,-1.2626646E-2,-6.385862E-2,4.937701E-3,-6.1623443E-2,2.5848519E-2,-5.575975E-2,8.238031E-2,9.870311E-3,6.586389E-2,-2.4028324E-2,-8.086748E-2,-2.145634E-2],"categories":[],"categories_nodes":[],"categories_segments":[],"categories_sizes":[],"default_left":[0,0,0,0,0,0,0,0,0,0,0,0,0,0,0,0,0,0,0,0,0,0,0,0,0,0,0,0,0,0,0,0,0,0,0,0,0,0,0,0,0,0,0,0,0,0,0,0,0],"id":1,"left_children":[1,3,5,7,9,11,13,15,17,19,21,23,-1,25,27,29,31,33,-1,35,37,-1,39,41,43,-1,-1,45,47,-1,-1,-1,-1,-1,-1,-1,-1,-1,-1,-1,-1,-1,-1,-1,-1,-1,-1,-1,-1],"loss_changes":[2.9110104E2,8.418306E1,1.0867143E2,4.2295307E1,3.0203522E1,5.8535645E1,1.6332447E1,2.2779566E1,1.1730709E1,9.042816E0,2.7943718E1,5.7191635E1,0E0,7.910676E-1,1.14057045E1,9.646598E0,6.376705E0,5.12002E0,0E0,1.5831909E0,7.956936E0,0E0,2.1335463E1,3.623016E1,1.2365967E1,0E0,0E0,4.6848865E0,8.062031E0,0E0,0E0,0E0,0E0,0E0,0E0,0E0,0E0,0E0,0E0,0E0,0E0,0E0,0E0,0E0,0E0,0E0,0E0,0E0,0E0],"parents":[2147483647,0,0,1,1,2,2,3,3,4,4,5,5,6,6,7,7,8,8,9,9,10,10,11,11,13,13,14,14,15,15,16,16,17,17,19,19,20,20,22,22,23,23,24,24,27,27,28,28],"right_children":[2,4,6,8,10,12,14,16,18,20,22,24,-1,26,28,30,32,34,-1,36,38,-1,40,42,44,-1,-1,46,48,-1,-1,-1,-1,-1,-1,-1,-1,-1,-1,-1,-1,-1,-1,-1,-1,-1,-1,-1,-1],"split_conditions":[1.0173256E0,-4.2937693E-1,1.4248421E0,5.35011E-1,1.9336085E-1,9.942911E-1,-6.9228524E-1,1.9336085E-1,2.3050494E0,1.1812826E0,1.5753499E0,1.9336085E-1,9.557327E-2,-4.271367E-2,-4.4708994E-1,5.5422825E-1,1.4248421E0,6.487775E-1,4.99011E-2,1.7013943E-1,6.487775E-1,8.196887E-2,-1.5392838E-1,1.0670881E0,1.2459644E0,6.8192616E-2,1.0179794E-2,2.942104E-1,1.9336085E-1,5.118224E-2,-1.8605193E-2,8.604161E-2,1.336256E-2,-1.860747E-2,-8.0331065E-2,-9.0532295E-2,-6.801667E-2,-1.2626646E-2,-6.385862E-2,4.937701E-3,-6.1623443E-2,2.5848519E-2,-5.575975E-2,8.238031E-2,9.870311E-3,6.586389E-2,-2.4028324E-2,-8.086748E-2,-2.145634E-2],"split_indices":[39,20,12,22,21,38,4,21,31,26,10,21,0,0,15,13,12,4,0,9,4,0,0,20,22,0,0,2,21,0,0,0,0,0,0,0,0,0,0,0,0,0,0,0,0,0,0,0,0],"split_type":[0,0,0,0,0,0,0,0,0,0,0,0,0,0,0,0,0,0,0,0,0,0,0,0,0,0,0,0,0,0,0,0,0,0,0,0,0,0,0,0,0,0,0,0,0,0,0,0,0],"sum_hessian":[4.7938196E2,2.4219919E2,2.3718275E2,6.517998E1,1.7701921E2,2.0071419E2,3.6468567E1,4.5201744E1,1.9978233E1,1.2007048E2,5.6948734E1,1.376203E2,6.3093895E1,3.4946074E0,3.297396E1,2.2976093E1,2.222565E1,1.797962E1,1.9986138E0,8.237682E1,3.769366E1,4.744582E0,5.220415E1,7.8929665E1,5.869063E1,2.2468479E0,1.2477596E0,4.2457323E0,2.8728228E1,6.2429204E0,1.6733173E1,1.797983E1,4.245821E0,5.7423615E0,1.2237258E1,4.4683575E1,3.769325E1,1.1984327E1,2.5709332E1,1.9732042E1,3.2472107E1,6.1686333E1,1.724333E1,5.144802E1,7.24261E0,1.9974393E0,2.2482927E0,1.8985218E1,9.74301E0],"tree_param":{"num_deleted":"0","num_feature":"40","num_nodes":"49","size_leaf_vector":"1"}},{"base_weights":[4.6960134E-3,-7.4927944E-1,7.7794254E-1,1.471334E-1,-1.0839049E0,1.0515513E0,-8.1788474E-1,4.865878E-1,-1.3011245E0,-1.3613092E0,-5.0885916E-1,1.2844173E0,-4.164158E-1,-9.820085E-1,6.4846516E-2,1.1325195E0,-2.6326913E-1,-7.528436E-2,9.981903E-3,-1.5717989E0,-8.973069E-1,7.87787E-2,-7.159094E-1,1.4483902E0,2.9721275E-1,-7.435767E-1,7.613461E-2,6.0749006E-1,-1.2206525E0,6.3132055E-2,-3.6664248E-2,-3.2368436E-2,3.5987023E-2,-8.159304E-2,-1.3953083E-2,-8.133483E-3,-6.187441E-2,1.6488865E-2,-6.0947206E-2,7.588395E-2,-6.531981E-2,-1.3913691E-2,6.191732E-2,5.4273855E-2,-5.0516043E-2,6.113357E-2,5.4577866E-4,-7.377225E-2,-2.0529043E-2],"categories":[],"categories_nodes":[],"categories_segments":[],"categories_sizes":[],"default_left":[0,0,0,0,0,0,0,0,0,0,0,0,0,0,0,0,0,0,0,0,0,0,0,0,0,0,0,0,0,0,0,0,0,0,0,0,0,0,0,0,0,0,0,0,0,0,0,0,0],"id":2,"left_children":[1,3,5,7,9,11,13,15,17,19,21,23,25,27,-1,29,31,-1,-1,33,35,-1,37,39,41,43,-1,45,47,-1,-1,-1,-1,-1,-1,-1,-1,-1,-1,-1,-1,-1,-1,-1,-1,-1,-1,-1,-1],"loss_changes":[2.792413E2,7.290277E1,1.0410527E2,3.3473106E1,2.7495789E1,6.96848E1,1.3317368E1,2.686201E1,3.712E0,1.017366E1,2.625407E1,2.7871216E1,1.8895817E1,1.3325478E1,0E0,6.743328E0,9.895853E0,0E0,0E0,2.6449585E0,9.00881E0,0E0,2.7534763E1,1.86474E1,1.4028553E1,1.2247118E1,0E0,1.7540704E0,4.8384666E0,0E0,0E0,0E0,0E0,0E0,0E0,0E0,0E0,0E0,0E0,0E0,0E0,0E0,0E0,0E0,0E0,0E0,0E0,0E0,0E0],"parents":[2147483647,0,0,1,1,2,2,3,3,4,4,5,5,6,6,7,7,8,8,9,9,10,10,11,11,12,12,13,13,15,15,16,16,19,19,20,20,22,22,23,23,24,24,25,25,27,27,28,28],"right_children":[2,4,6,8,10,12,14,16,18,20,22,24,26,28,-1,30,32,-1,-1,34,36,-1,38,40,42,44,-1,46,48,-1,-1,-1,-1,-1,-1,-1,-1,-1,-1,-1,-1,-1,-1,-1,-1,-1,-1,-1,-1],"split_conditions":[1.0173256E0,-4.2937693E-1,1.422001E0,1.422001E0,1.9336085E-1,1.4248421E0,1.7749634E0,6.487775E-1,2.3050494E0,1.1812826E0,1.5753499E0,1.0670881E0,1.7749634E0,-1.039092E0,6.4846516E-2,2.9810724E0,1.4981929E0,-7.528436E-2,9.981903E-3,3.2647994E0,6.487775E-1,7.87787E-2,1.7390625E-1,2.1389062E0,1.9336085E-1,-6.9228524E-1,7.613461E-2,6.487775E-1,2.9798743E-1,6.3132055E-2,-3.6664248E-2,-3.2368436E-2,3.5987023E-2,-8.159304E-2,-1.3953083E-2,-8.133483E-3,-6.187441E-2,1.6488865E-2,-6.0947206E-2,7.588395E-2,-6.531981E-2,-1.3913691E-2,6.191732E-2,5.4273855E-2,-5.0516043E-2,6.113357E-2,5.4577866E-4,-7.377225E-2,-2.0529043E-2],"split_indices":[39,20,6,6,21,12,37,4,31,26,10,20,37,14,0,11,23,0,0,17,4,0,5,5,21,4,0,4,1,0,0,0,0,0,0,0,0,0,0,0,0,0,0,0,0,0,0,0,0],"split_type":[0,0,0,0,0,0,0,0,0,0,0,0,0,0,0,0,0,0,0,0,0,0,0,0,0,0,0,0,0,0,0,0,0,0,0,0,0,0,0,0,0,0,0,0,0,0,0,0,0],"sum_hessian":[4.7696594E2,2.4150793E2,2.3545801E2,6.57999E1,1.7570804E2,2.0128775E2,3.4170254E1,5.3843613E1,1.1956282E1,1.17606766E2,5.810128E1,1.7383679E2,2.745096E1,3.2174644E1,1.9956088E0,2.8652147E1,2.5191463E1,1.0707222E1,1.2490602E0,7.926263E1,3.834414E1,4.7261E0,5.3375183E1,1.4867496E2,2.516183E1,2.3959307E1,3.4916534E0,3.9982874E0,2.817636E1,2.7406467E1,1.2456796E0,1.845519E1,6.7362733E0,7.7266815E1,1.9958074E0,1.1978984E1,2.6365154E1,1.697033E1,3.6404854E1,1.4692555E2,1.7494136E0,1.5953627E1,9.208204E0,2.4903283E0,2.1468979E1,1.4994277E0,2.4988596E0,2.1445904E1,6.7304554E0],"tree_param":{"num_deleted":"0","num_feature":"40","num_nodes":"49","size_leaf_vector":"1"}},{"base_weights":[-6.8061515E-3,-7.312614E-1,7.474582E-1,-7.66869E-2,-1.1170949E0,9.8820966E-1,-4.478286E-1,7.2115064E-1,-5.5953014E-1,-1.305154E0,-3.6728403E-1,1.2305527E0,-3.90007E-1,-1.1908858E0,8.055675E-1,1.2866174E0,6.404625E-2,5.0645804E-1,-9.134667E-1,-1.418845E0,-7.9383594E-1,3.8561088E-1,-1.2077098E0,1.3038832E0,-2.8803715E-1,-9.400576E-1,4.5770118E-1,-1.3999658E0,3.4592442E-2,7.537836E-2,-2.8580385E-1,-3.5794176E-2,7.4889734E-2,5.579188E-2,-2.5973503E-2,4.58314E-2,-5.3125802E-2,1.834878E-2,-5.17716E-2,-8.2766265E-2,-5.9968498E-2,1.4174306E-2,-5.6133527E-2,-2.7448045E-2,6.0936656E-2,-1.2479791E-2,-7.353738E-2,6.855286E-2,-1.6721034E-2,4.280375E-2,-6.878236E-2,-4.8308154E-3,-6.689918E-2,7.372128E-2,-8.923774E-3,2.353608E-2,-8.6493276E-2,2.5017213E-2,-4.36175E-2],"categories":[],"categories_nodes":[],"categories_segments":[],"categories_sizes":[],"default_left":[0,0,0,0,0,0,0,0,0,0,0,0,0,0,0,0,0,0,0,0,0,0,0,0,0,0,0,0,0,0,0,0,0,0,0,0,0,0,0,0,0,0,0,0,0,0,0,0,0,0,0,0,0,0,0,0,0,0,0],"id":3,"left_children":[1,3,5,7,9,11,13,15,17,19,21,23,25,27,29,31,33,35,37,39,41,43,45,47,49,51,53,55,-1,-1,57,-1,-1,-1,-1,-1,-1,-1,-1,-1,-1,-1,-1,-1,-1,-1,-1,-1,-1,-1,-1,-1,-1,-1,-1,-1,-1,-1,-1],"loss_changes":[2.5992355E2,6.1191513E1,6.750597E1,3.547938E1,2.1035156E1,6.5372696E1,3.7988243E1,1.2835352E1,2.207634E1,5.941986E0,2.0704723E1,1.8802704E1,1.43319435E1,1.0866463E1,1.1744131E1,7.823326E0,1.0693306E1,1.0024423E1,6.0342712E0,2.970932E0,8.355743E0,1.3849527E1,3.1294804E0,1.1165802E1,1.1247037E1,5.6785984E0,8.019073E0,1.360638E1,0E0,0E0,3.3948119E0,0E0,0E0,0E0,0E0,0E0,0E0,0E0,0E0,0E0,0E0,0E0,0E0,0E0,0E0,0E0,0E0,0E0,0E0,0E0,0E0,0E0,0E0,0E0,0E0,0E0,0E0,0E0,0E0],"parents":[2147483647,0,0,1,1,2,2,3,3,4,4,5,5,6,6,7,7,8,8,9,9,10,10,11,11,12,12,13,13,14,14,15,15,16,16,17,17,18,18,19,19,20,20,21,21,22,22,23,23,24,24,25,25,26,26,27,27,30,30],"right_children":[2,4,6,8,10,12,14,16,18,20,22,24,26,28,30,32,34,36,38,40,42,44,46,48,50,52,54,56,-1,-1,58,-1,-1,-1,-1,-1,-1,-1,-1,-1,-1,-1,-1,-1,-1,-1,-1,-1,-1,-1,-1,-1,-1,-1,-1,-1,-1,-1,-1],"split_conditions":[1.0173256E0,6.487775E-1,1.4225379E0,-4.2937693E-1,1.6071422E0,1.3219855E0,1.9336085E-1,-6.646232E-1,5.5422825E-1,1.0612074E0,-1.5392838E-1,2.0451987E0,1.9336085E-1,1.5880876E0,-4.441962E-1,-8.6409086E-1,5.5422825E-1,1.4225379E0,-4.4708994E-1,-1.3978592E-1,-6.907636E-1,1.020243E0,-9.3047905E-1,1.7767944E0,6.487775E-1,-1.5392838E-1,1.5753499E0,-1.3344797E0,3.4592442E-2,7.537836E-2,6.4218295E-1,-3.5794176E-2,7.4889734E-2,5.579188E-2,-2.5973503E-2,4.58314E-2,-5.3125802E-2,1.834878E-2,-5.17716E-2,-8.2766265E-2,-5.9968498E-2,1.4174306E-2,-5.6133527E-2,-2.7448045E-2,6.0936656E-2,-1.2479791E-2,-7.353738E-2,6.855286E-2,-1.6721034E-2,4.280375E-2,-6.878236E-2,-4.8308154E-3,-6.689918E-2,7.372128E-2,-8.923774E-3,2.353608E-2,-8.6493276E-2,2.5017213E-2,-4.36175E-2],"split_indices":[39,4,3,20,34,2,21,7,13,21,0,15,21,8,7,7,13,3,15,8,7,32,8,7,4,0,10,8,0,0,25,0,0,0,0,0,0,0,0,0,0,0,0,0,0,0,0,0,0,0,0,0,0,0,0,0,0,0,0],"split_type":[0,0,0,0,0,0,0,0,0,0,0,0,0,0,0,0,0,0,0,0,0,0,0,0,0,0,0,0,0,0,0,0,0,0,0,0,0,0,0,0,0,0,0,0,0,0,0,0,0,0,0,0,0,0,0,0,0,0,0],"sum_hessian":[4.73675E2,2.416274E2,2.3204759E2,9.005166E1,1.5157574E2,1.9328906E2,3.875852E1,3.3765266E1,5.6286392E1,1.2059005E2,3.0985687E1,1.644752E2,2.8813864E1,2.436435E1,1.439417E1,1.763316E1,1.6132107E1,1.3922771E1,4.236362E1,9.7202324E1,2.338773E1,1.6629412E1,1.4356276E1,1.5703366E2,7.441543E0,1.7408869E1,1.1404996E1,2.2139978E1,2.2243707E0,8.679519E0,5.714651E0,1.2481354E0,1.6385025E1,5.443562E0,1.0688544E1,1.1439584E1,2.4831882E0,2.9722955E0,3.9391327E1,4.9452568E1,4.7749756E1,5.239649E0,1.814808E1,7.925113E0,8.704299E0,3.2232535E0,1.1133022E1,1.5330359E2,3.7300773E0,3.7095919E0,3.7319512E0,5.7136908E0,1.1695178E1,3.9478164E0,7.457179E0,2.9750729E0,1.9164906E1,2.4780483E0,3.2366028E0],"tree_param":{"num_deleted":"0","num_feature":"40","num_nodes":"59","size_leaf_vector":"1"}},{"base_weights":[2.104447E-2,-6.5292275E-1,7.111787E-1,-2.5952373E-2,-1.0027418E0,3.2650313E-1,8.6710736E-2,-5.887005E-1,8.5378426E-1,-1.3532972E0,-5.0131017E-1,8.7121683E-1,-4.701687E-1,4.533066E-1,-8.9681154E-1,1.3604363E0,6.2219884E-2,-1.7058887E-3,-1.3787578E0,-9.4185543E-1,8.9649625E-2,1.1313792E0,-4.8850915E-1,-1.4164792E0,2.461254E-1,6.3207194E-2,-3.885002E-2,-5.889186E-2,9.416882E-3,1.4089998E-2,7.43882E-2,-4.8619337E-2,5.8132783E-2,8.778493E-4,-7.146936E-2,-6.1901394E-2,-1.9690992E-2,6.6142164E-2,-5.9840735E-3,1.9129576E-2,-7.6935045E-2,-2.9751185E-2,-8.482174E-2,-2.0864198E-2,5.9335053E-2],"categories":[],"categories_nodes":[],"categories_segments":[],"categories_sizes":[],"default_left":[0,0,0,0,0,0,0,0,0,0,0,0,0,0,0,0,0,0,0,0,0,0,0,0,0,0,0,0,0,0,0,0,0,0,0,0,0,0,0,0,0,0,0,0,0],"id":4,"left_children":[1,3,5,7,9,11,-1,13,15,17,19,21,23,25,27,29,31,-1,33,35,-1,37,39,41,43,-1,-1,-1,-1,-1,-1,-1,-1,-1,-1,-1,-1,-1,-1,-1,-1,-1,-1,-1,-1],"loss_changes":[2.1980911E2,5.2416107E1,8.8417404E1,4.3404327E1,2.629457E1,7.392634E1,0E0,1.7564428E1,1.3637377E1,2.968811E0,6.612367E1,3.6269318E1,4.7420242E1,1.3254908E1,1.1864258E1,1.8422623E0,1.6879284E1,0E0,2.9658356E0,7.844387E0,0E0,1.7865883E1,1.5493684E1,5.243061E0,2.4789675E1,0E0,0E0,0E0,0E0,0E0,0E0,0E0,0E0,0E0,0E0,0E0,0E0,0E0,0E0,0E0,0E0,0E0,0E0,0E0,0E0],"parents":[2147483647,0,0,1,1,2,2,3,3,4,4,5,5,7,7,8,8,9,9,10,10,11,11,12,12,13,13,14,14,15,15,16,16,18,18,19,19,21,21,22,22,23,23,24,24],"right_children":[2,4,6,8,10,12,-1,14,16,18,20,22,24,26,28,30,32,-1,34,36,-1,38,40,42,44,-1,-1,-1,-1,-1,-1,-1,-1,-1,-1,-1,-1,-1,-1,-1,-1,-1,-1,-1,-1],"split_conditions":[1.0173256E0,-5.000095E-1,9.942911E-1,1.9336085E-1,1.1812826E0,-3.4669963E-1,8.6710736E-2,-4.7615665E-1,-1.5392838E-1,-1.1548609E0,6.4218295E-1,1.422001E0,1.1812826E0,-1.0120604E-1,1.1812826E0,5.3394866E-1,1.4981929E0,-1.7058887E-3,-1.9453785E0,1.6783912E-1,8.9649625E-2,1.4248421E0,-5.035447E-1,-2.651431E-1,1.9336085E-1,6.3207194E-2,-3.885002E-2,-5.889186E-2,9.416882E-3,1.4089998E-2,7.43882E-2,-4.8619337E-2,5.8132783E-2,8.778493E-4,-7.146936E-2,-6.1901394E-2,-1.9690992E-2,6.6142164E-2,-5.9840735E-3,1.9129576E-2,-7.6935045E-2,-2.9751185E-2,-8.482174E-2,-2.0864198E-2,5.9335053E-2],"split_indices":[39,7,38,21,26,7,0,12,0,0,25,6,26,22,26,24,23,0,22,1,0,12,14,0,21,0,0,0,0,0,0,0,0,0,0,0,0,0,0,0,0,0,0,0,0],"split_type":[0,0,0,0,0,0,0,0,0,0,0,0,0,0,0,0,0,0,0,0,0,0,0,0,0,0,0,0,0,0,0,0,0,0,0,0,0,0,0,0,0,0,0,0,0],"sum_hessian":[4.7057953E2,2.3810564E2,2.3247389E2,8.565784E1,1.524478E2,1.6840973E2,6.4064156E1,5.244241E1,3.3215427E1,8.872235E1,6.372545E1,9.996585E1,6.8443886E1,1.1860365E1,4.0582043E1,1.981432E1,1.3401107E1,1.7229657E0,8.699939E1,5.3821255E1,9.904197E0,8.405178E1,1.5914066E1,2.90663E1,3.9377583E1,7.1866302E0,4.6737347E0,3.268562E1,7.8964252E0,1.9846197E0,1.78297E1,6.9591413E0,6.441965E0,1.4719065E0,8.552748E1,3.528536E1,1.8535892E1,7.411491E1,9.936874E0,8.964404E0,6.9496617E0,7.4469047E0,2.1619394E1,2.329937E1,1.6078213E1],"tree_param":{"num_deleted":"0","num_feature":"40","num_nodes":"45","size_leaf_vector":"1"}},{"base_weights":[-1.0649588E-2,-6.3775706E-1,6.4801174E-1,-1.0923046E-2,-1.017369E0,8.951571E-1,-8.606104E-1,-8.856645E-1,3.6471942E-1,-2.2910278E-1,-1.2055407E0,5.739763E-1,8.3288744E-2,-1.009053E0,5.8029044E-2,2.983605E-1,-1.3114364E0,-2.8986754E-2,8.655486E-2,-7.0344925E-1,8.3688474E-1,-1.3745921E0,-5.377669E-1,1.0972614E0,-2.2642237E-1,1.8832779E-1,-1.2892487E0,5.343709E-2,-1.3618372E-2,1.2776244E-2,-7.253609E-2,3.490572E-2,-2.558174E-2,4.9137127E-2,-5.6531444E-2,7.454046E-2,-2.1828355E-2,-7.118282E-2,-1.4832421E-2,-5.6334943E-2,8.5363455E-2,3.4846038E-2,8.009174E-2,-7.59901E-2,3.552307E-2,3.822791E-2,-4.59399E-2,-7.007209E-2,-3.6886595E-3],"categories":[],"categories_nodes":[],"categories_segments":[],"categories_sizes":[],"default_left":[0,0,0,0,0,0,0,0,0,0,0,0,0,0,0,0,0,0,0,0,0,0,0,0,0,0,0,0,0,0,0,0,0,0,0,0,0,0,0,0,0,0,0,0,0,0,0,0,0],"id":5,"left_children":[1,3,5,7,9,11,13,15,17,19,21,23,-1,25,-1,27,29,31,-1,33,35,37,39,41,43,45,47,-1,-1,-1,-1,-1,-1,-1,-1,-1,-1,-1,-1,-1,-1,-1,-1,-1,-1,-1,-1,-1,-1],"loss_changes":[1.9326779E2,5.7022606E1,8.58612E1,3.0361092E1,2.1864777E1,4.5754333E1,1.0835552E1,1.4383131E1,3.4010674E1,1.575844E1,1.2837662E1,5.8298897E1,0E0,1.0612862E1,0E0,3.74212E0,3.9677086E0,1.754238E1,0E0,1.5499372E1,8.307439E0,1.9160461E0,3.445358E1,1.5402E1,6.60264E1,4.801144E0,2.5359764E0,0E0,0E0,0E0,0E0,0E0,0E0,0E0,0E0,0E0,0E0,0E0,0E0,0E0,0E0,0E0,0E0,0E0,0E0,0E0,0E0,0E0,0E0],"parents":[2147483647,0,0,1,1,2,2,3,3,4,4,5,5,6,6,7,7,8,8,9,9,10,10,11,11,13,13,15,15,16,16,17,17,19,19,20,20,21,21,22,22,23,23,24,24,25,25,26,26],"right_children":[2,4,6,8,10,12,14,16,18,20,22,24,-1,26,-1,28,30,32,-1,34,36,38,40,42,44,46,48,-1,-1,-1,-1,-1,-1,-1,-1,-1,-1,-1,-1,-1,-1,-1,-1,-1,-1,-1,-1,-1,-1],"split_conditions":[1.0173256E0,6.487775E-1,1.422001E0,6.525721E-1,-7.176105E-1,9.942911E-1,9.942911E-1,-6.646232E-1,1.020243E0,1.5753499E0,1.4981929E0,1.7390625E-1,8.3288744E-2,-7.713183E-1,5.8029044E-2,-3.385057E-1,-8.1204367E-1,5.5615854E-1,8.655486E-2,-1.5044668E0,-1.5392838E-1,5.503052E0,5.3394866E-1,1.4981929E0,1.6581775E0,5.7674897E-1,1.9591513E0,5.343709E-2,-1.3618372E-2,1.2776244E-2,-7.253609E-2,3.490572E-2,-2.558174E-2,4.9137127E-2,-5.6531444E-2,7.454046E-2,-2.1828355E-2,-7.118282E-2,-1.4832421E-2,-5.6334943E-2,8.5363455E-2,3.4846038E-2,8.009174E-2,-7.59901E-2,3.552307E-2,3.822791E-2,-4.59399E-2,-7.007209E-2,-3.6886595E-3],"split_indices":[39,4,6,33,7,38,38,7,32,10,23,5,0,14,0,17,16,16,0,8,0,27,24,23,36,8,0,0,0,0,0,0,0,0,0,0,0,0,0,0,0,0,0,0,0,0,0,0,0],"split_type":[0,0,0,0,0,0,0,0,0,0,0,0,0,0,0,0,0,0,0,0,0,0,0,0,0,0,0,0,0,0,0,0,0,0,0,0,0,0,0,0,0,0,0,0,0,0,0,0,0],"sum_hessian":[4.6590198E2,2.3868407E2,2.2721793E2,9.041504E1,1.4826901E2,1.9558366E2,3.1634253E1,2.675475E1,6.3660294E1,2.9000614E1,1.192684E2,1.3759924E2,5.798443E1,2.9909184E1,1.7250698E0,7.1554565E0,1.9599293E1,4.990939E1,1.3750902E1,2.0305227E1,8.695388E0,9.432973E1,2.4938675E1,8.297856E1,5.4620678E1,5.7339115E0,2.4175272E1,2.7082753E0,4.447181E0,1.230631E0,1.8368662E1,1.9710806E1,3.0198586E1,3.7065508E0,1.6598677E1,5.712507E0,2.9828813E0,9.2128136E1,2.201592E0,2.0244375E1,4.694301E0,4.56589E1,3.731966E1,2.2790974E1,3.1829706E1,3.988968E0,1.7449439E0,2.2457342E1,1.7179295E0],"tree_param":{"num_deleted":"0","num_feature":"40","num_nodes":"49","size_leaf_vector":"1"}},{"base_weights":[-3.4111715E-3,4.9717426E-1,-7.2069955E-1,4.0069524E-2,1.0920742E0,-9.4439304E-1,-3.1717744E-2,-4.0174207E-1,9.688985E-1,1.2547172E0,-3.4697235E-1,-1.369279E0,-6.980206E-1,3.577392E-1,-1.1178156E0,1.3154137E-1,-8.450817E-1,1.1410328E0,-3.4427002E-1,1.3721864E0,5.1864512E-2,8.4289825E-1,-1.1324465E0,-1.4007132E0,-1.6191818E-3,-8.8150424E-1,2.0401232E-1,8.3918434E-1,-5.9056664E-1,-2.0862275E-3,-1.2803797E0,-1.102972E-2,7.9548456E-2,-5.0060365E-2,5.888982E-2,7.165352E-2,2.7595427E-2,-5.683502E-2,2.9323064E-2,7.561813E-2,2.704155E-2,5.9232175E-2,-3.2512806E-2,6.567756E-2,5.082266E-3,-7.19775E-2,-2.9253566E-3,-2.9732158E-2,-7.3295556E-2,1.7347662E-2,-5.2146114E-2,3.5667688E-2,-4.1376024E-2,-2.04784E-2,5.957516E-2,2.0645648E-2,-4.9201585E-2,-7.614478E-2,-1.4147555E-2],"categories":[],"categories_nodes":[],"categories_segments":[],"categories_sizes":[],"default_left":[0,0,0,0,0,0,0,0,0,0,0,0,0,0,0,0,0,0,0,0,0,0,0,0,0,0,0,0,0,0,0,0,0,0,0,0,0,0,0,0,0,0,0,0,0,0,0,0,0,0,0,0,0,0,0,0,0,0,0],"id":6,"left_children":[1,3,5,7,9,11,13,15,17,19,21,23,25,27,29,31,33,35,37,39,41,43,45,47,-1,49,51,53,55,-1,57,-1,-1,-1,-1,-1,-1,-1,-1,-1,-1,-1,-1,-1,-1,-1,-1,-1,-1,-1,-1,-1,-1,-1,-1,-1,-1,-1,-1],"loss_changes":[1.6643999E2,7.419713E1,2.9334259E1,6.417051E1,2.8191086E1,1.4096695E1,2.0590097E1,2.5179876E1,1.1783649E1,1.5014267E1,1.2941314E1,2.1306915E0,1.5581654E1,1.6882086E1,2.1955013E0,2.4718332E1,1.7094402E1,6.3599052E0,5.3295565E0,8.370468E0,8.817504E0,1.7523222E0,2.3748045E0,7.2260284E-1,0E0,1.3794338E1,8.905451E0,1.0391359E1,5.1246996E0,0E0,1.9729156E0,0E0,0E0,0E0,0E0,0E0,0E0,0E0,0E0,0E0,0E0,0E0,0E0,0E0,0E0,0E0,0E0,0E0,0E0,0E0,0E0,0E0,0E0,0E0,0E0,0E0,0E0,0E0,0E0],"parents":[2147483647,0,0,1,1,2,2,3,3,4,4,5,5,6,6,7,7,8,8,9,9,10,10,11,11,12,12,13,13,14,14,15,15,16,16,17,17,18,18,19,19,20,20,21,21,22,22,23,23,25,25,26,26,27,27,28,28,30,30],"right_children":[2,4,6,8,10,12,14,16,18,20,22,24,26,28,30,32,34,36,38,40,42,44,46,48,-1,50,52,54,56,-1,58,-1,-1,-1,-1,-1,-1,-1,-1,-1,-1,-1,-1,-1,-1,-1,-1,-1,-1,-1,-1,-1,-1,-1,-1,-1,-1,-1,-1],"split_conditions":[5.5422825E-1,1.9336085E-1,1.4981929E0,1.4981929E0,1.2459644E0,6.525721E-1,1.0416007E0,1.4043282E-4,1.226793E0,2.7969005E0,1.7390625E-1,2.8436253E0,2.2220883E0,5.35011E-1,1.7390625E-1,-5.977986E-1,1.7749634E0,3.2002524E-2,1.340991E0,1.3219855E0,5.5615854E-1,-4.4640028E-1,1.0149717E0,-4.4708994E-1,-1.6191818E-3,-1.5635682E0,5.916085E-1,6.525721E-1,5.5615854E-1,-2.0862275E-3,5.992757E-1,-1.102972E-2,7.9548456E-2,-5.0060365E-2,5.888982E-2,7.165352E-2,2.7595427E-2,-5.683502E-2,2.9323064E-2,7.561813E-2,2.704155E-2,5.9232175E-2,-3.2512806E-2,6.567756E-2,5.082266E-3,-7.19775E-2,-2.9253566E-3,-2.9732158E-2,-7.3295556E-2,1.7347662E-2,-5.2146114E-2,3.5667688E-2,-4.1376024E-2,-2.04784E-2,5.957516E-2,2.0645648E-2,-4.9201585E-2,-7.614478E-2,-1.4147555E-2],"split_indices":[13,21,23,23,22,33,18,22,22,21,5,14,28,22,5,22,37,14,22,2,16,18,19,15,0,8,22,33,16,0,9,0,0,0,0,0,0,0,0,0,0,0,0,0,0,0,0,0,0,0,0,0,0,0,0,0,0,0,0],"split_type":[0,0,0,0,0,0,0,0,0,0,0,0,0,0,0,0,0,0,0,0,0,0,0,0,0,0,0,0,0,0,0,0,0,0,0,0,0,0,0,0,0,0,0,0,0,0,0,0,0,0,0,0,0,0,0,0,0,0,0],"sum_hessian":[4.6154044E2,2.7201318E2,1.8952728E2,1.5442477E2,1.175884E2,1.4279497E2,4.6732307E1,1.0503212E2,4.9392647E1,1.0576301E2,1.1825396E1,5.07373E1,9.205767E1,3.489143E1,1.1840878E1,4.799876E1,5.703336E1,4.378434E1,5.6083074E0,9.6225006E1,9.537998E0,4.6731687E0,7.152227E0,4.952607E1,1.2112311E0,7.6516174E1,1.5541495E1,2.3218637E1,1.1672793E1,1.7172444E0,1.0123633E1,3.928482E1,8.71394E0,5.3843933E1,3.1894245E0,2.941859E1,1.436575E1,2.9348006E0,2.673507E0,8.425254E1,1.19724655E1,3.3923924E0,6.145606E0,2.4611373E0,2.2120314E0,5.4242086E0,1.7280182E0,2.9182198E0,4.660785E1,7.8177586E0,6.869842E1,1.0652353E1,4.889142E0,4.832076E0,1.838656E1,3.1719365E0,8.500856E0,7.938311E0,2.1853223E0],"tree_param":{"num_deleted":"0","num_feature":"40","num_nodes":"59","size_leaf_vector":"1"}},{"base_weights":[-2.2073453E-2,-6.0323894E-1,5.936476E-1,1.3052024E-2,-9.683564E-1,2.4460834E-1,7.961903E-2,-4.7657895E-1,6.289704E-1,-1.138599E0,-3.599347E-1,7.5305736E-1,-4.800456E-1,2.678983E-1,-8.881992E-1,9.470901E-1,-7.513002E-1,-4.2915446E-1,-1.2528405E0,-8.1073195E-1,3.8496473E-1,3.1957433E-1,1.3368033E0,-1.4620497E0,3.5578164E-1,-3.947289E-2,2.9269261E-2,-1.7766228E-2,-6.736925E-2,7.8327365E-2,3.0977687E-2,4.6738338E-2,-6.0110956E-2,4.873552E-2,-3.9536584E-2,-7.103677E-2,-4.778443E-2,-6.821785E-3,-6.926263E-2,4.010893E-2,-5.947972E-2,-8.849869E-3,5.6500915E-2,7.491993E-2,-1.8860601E-3,-1.3051674E-2,-7.9195336E-2,5.785481E-2,-1.972281E-2],"categories":[],"categories_nodes":[],"categories_segments":[],"categories_sizes":[],"default_left":[0,0,0,0,0,0,0,0,0,0,0,0,0,0,0,0,0,0,0,0,0,0,0,0,0,0,0,0,0,0,0,0,0,0,0,0,0,0,0,0,0,0,0,0,0,0,0,0,0],"id":7,"left_children":[1,3,5,7,9,11,-1,13,15,17,19,21,23,25,27,29,31,33,35,37,39,41,43,45,47,-1,-1,-1,-1,-1,-1,-1,-1,-1,-1,-1,-1,-1,-1,-1,-1,-1,-1,-1,-1,-1,-1,-1,-1],"loss_changes":[1.6457666E2,5.3247894E1,7.5156136E1,2.7140667E1,1.4979828E1,6.1296284E1,0E0,1.560721E1,1.8208984E1,8.834076E0,1.1711316E1,2.4264477E1,5.6992695E1,6.398116E0,7.156004E0,5.6355267E0,6.817418E0,9.18042E0,3.104309E0,7.7910852E0,9.3338995E0,2.2507065E1,7.6302185E0,3.1443176E0,2.243411E1,0E0,0E0,0E0,0E0,0E0,0E0,0E0,0E0,0E0,0E0,0E0,0E0,0E0,0E0,0E0,0E0,0E0,0E0,0E0,0E0,0E0,0E0,0E0,0E0],"parents":[2147483647,0,0,1,1,2,2,3,3,4,4,5,5,7,7,8,8,9,9,10,10,11,11,12,12,13,13,14,14,15,15,16,16,17,17,18,18,19,19,20,20,21,21,22,22,23,23,24,24],"right_children":[2,4,6,8,10,12,-1,14,16,18,20,22,24,26,28,30,32,34,36,38,40,42,44,46,48,-1,-1,-1,-1,-1,-1,-1,-1,-1,-1,-1,-1,-1,-1,-1,-1,-1,-1,-1,-1,-1,-1,-1,-1],"split_conditions":[1.0173256E0,6.487775E-1,9.942911E-1,1.9336085E-1,1.4981929E0,1.7390625E-1,7.961903E-2,5.5615854E-1,6.9101E-1,-6.816776E-1,1.9336085E-1,1.4981929E0,1.6581775E0,-8.7334716E-1,4.9193883E-1,1.5753499E0,1.5753499E0,-1.5587839E0,1.2663833E0,4.9193883E-1,1.1564063E0,1.9336085E-1,1.4225379E0,-6.9228524E-1,5.5615854E-1,-3.947289E-2,2.9269261E-2,-1.7766228E-2,-6.736925E-2,7.8327365E-2,3.0977687E-2,4.6738338E-2,-6.0110956E-2,4.873552E-2,-3.9536584E-2,-7.103677E-2,-4.778443E-2,-6.821785E-3,-6.926263E-2,4.010893E-2,-5.947972E-2,-8.849869E-3,5.6500915E-2,7.491993E-2,-1.8860601E-3,-1.3051674E-2,-7.9195336E-2,5.785481E-2,-1.972281E-2],"split_indices":[39,4,38,21,23,5,0,16,17,17,21,23,36,1,3,10,10,8,29,3,5,21,3,4,16,0,0,0,0,0,0,0,0,0,0,0,0,0,0,0,0,0,0,0,0,0,0,0,0],"split_type":[0,0,0,0,0,0,0,0,0,0,0,0,0,0,0,0,0,0,0,0,0,0,0,0,0,0,0,0,0,0,0,0,0,0,0,0,0,0,0,0,0,0,0,0,0,0,0,0,0],"sum_hessian":[4.579215E2,2.3558156E2,2.2233995E2,8.800312E1,1.4757843E2,1.6438162E2,5.7958324E1,4.9153915E1,3.8849205E1,1.1463186E2,3.2946575E1,9.657863E1,6.7803E1,1.7625217E1,3.1528698E1,3.1827547E1,7.021658E0,1.6558626E1,9.8073235E1,2.0470118E1,1.2476458E1,5.631053E1,4.0268097E1,3.0830896E1,3.6972103E1,3.6577907E0,1.3967426E1,1.486042E1,1.6668278E1,1.0324354E1,2.1503195E1,1.2015554E0,5.8201027E0,2.962853E0,1.3595774E1,6.532724E1,3.2745995E1,9.721476E0,1.0748643E1,1.0300365E1,2.1760921E0,3.513468E1,2.1175852E1,3.663454E1,3.633554E0,2.4602232E0,2.8370672E1,1.7780905E1,1.9191198E1],"tree_param":{"num_deleted":"0","num_feature":"40","num_nodes":"49","size_leaf_vector":"1"}},{"base_weights":[-1.815692E-2,-5.95982E-1,5.769664E-1,-8.476036E-1,1.7711289E-1,8.1288016E-1,-7.870416E-1,-1.1928487E0,-3.4801143E-1,5.2554023E-1,-7.6676047E-1,9.936345E-1,-2.1478046E-1,-3.5608396E-2,-1.0946279E0,-2.8109154E-1,-1.3127588E0,-7.291241E-1,8.1587605E-2,8.172841E-2,1.2347484E0,4.7779307E-2,-1.0381634E0,1.1637416E0,-1.0170925E-1,9.974972E-1,-6.576694E-1,4.3625334E-1,-6.56487E-2,-1.4639183E0,-4.077778E-1,3.0620629E-2,-4.3911785E-2,5.4181353E-3,-6.931791E-2,-7.4212276E-3,-5.309885E-2,-6.1012153E-3,7.143759E-2,7.872003E-2,-7.7197086E-3,-6.470272E-2,-4.480045E-3,6.2464733E-2,-1.3136868E-2,-4.275351E-2,2.9513545E-2,2.5041164E-3,6.9650315E-2,-4.943006E-2,1.4430139E-3,4.2602725E-2,-5.480227E-2,-8.0712005E-2,-9.536351E-3,3.430255E-2,-4.130035E-2],"categories":[],"categories_nodes":[],"categories_segments":[],"categories_sizes":[],"default_left":[0,0,0,0,0,0,0,0,0,0,0,0,0,0,0,0,0,0,0,0,0,0,0,0,0,0,0,0,0,0,0,0,0,0,0,0,0,0,0,0,0,0,0,0,0,0,0,0,0,0,0,0,0,0,0,0,0],"id":8,"left_children":[1,3,5,7,9,11,13,15,17,19,21,23,25,27,29,31,33,35,-1,37,39,-1,41,43,45,47,49,51,-1,53,55,-1,-1,-1,-1,-1,-1,-1,-1,-1,-1,-1,-1,-1,-1,-1,-1,-1,-1,-1,-1,-1,-1,-1,-1,-1,-1],"loss_changes":[1.5792114E2,4.5472946E1,7.344363E1,2.9933212E1,1.9490082E1,3.6134285E1,7.789192E0,1.0961456E1,5.5633408E1,1.3428338E1,8.40063E0,3.0793335E1,1.6627739E1,6.988577E0,5.490156E0,7.3402977E0,6.328583E0,1.1174278E1,0E0,7.4858956E0,7.3196087E0,0E0,3.042553E0,1.2929779E1,1.2060373E1,2.8613605E0,4.82703E0,6.12511E0,0E0,2.0391693E0,4.8032403E0,0E0,0E0,0E0,0E0,0E0,0E0,0E0,0E0,0E0,0E0,0E0,0E0,0E0,0E0,0E0,0E0,0E0,0E0,0E0,0E0,0E0,0E0,0E0,0E0,0E0,0E0],"parents":[2147483647,0,0,1,1,2,2,3,3,4,4,5,5,6,6,7,7,8,8,9,9,10,10,11,11,12,12,13,13,14,14,15,15,16,16,17,17,19,19,20,20,22,22,23,23,24,24,25,25,26,26,27,27,29,29,30,30],"right_children":[2,4,6,8,10,12,14,16,18,20,22,24,26,28,30,32,34,36,-1,38,40,-1,42,44,46,48,50,52,-1,54,56,-1,-1,-1,-1,-1,-1,-1,-1,-1,-1,-1,-1,-1,-1,-1,-1,-1,-1,-1,-1,-1,-1,-1,-1,-1,-1],"split_conditions":[1.0173256E0,1.6071422E0,1.422001E0,1.1812826E0,6.2658787E-1,1.4225379E0,-5.035447E-1,-7.851987E-1,6.4218295E-1,1.9336085E-1,-1.3900633E0,1.3219855E0,-7.713183E-1,-6.5143526E-1,1.6581775E0,6.487775E-1,-9.0520513E-1,6.487775E-1,8.1587605E-2,1.1812826E0,-1.0188428E-1,4.7779307E-2,1.128644E0,2.0451987E0,1.1812826E0,1.9336085E-1,1.9336085E-1,2.1332894E-2,-6.56487E-2,3.8264594E0,-4.3866023E-1,3.0620629E-2,-4.3911785E-2,5.4181353E-3,-6.931791E-2,-7.4212276E-3,-5.309885E-2,-6.1012153E-3,7.143759E-2,7.872003E-2,-7.7197086E-3,-6.470272E-2,-4.480045E-3,6.2464733E-2,-1.3136868E-2,-4.275351E-2,2.9513545E-2,2.5041164E-3,6.9650315E-2,-4.943006E-2,1.4430139E-3,4.2602725E-2,-5.480227E-2,-8.0712005E-2,-9.536351E-3,3.430255E-2,-4.130035E-2],"split_indices":[39,34,6,26,22,3,14,7,25,21,8,2,14,7,36,4,14,4,0,26,14,0,8,15,26,21,21,19,0,30,3,0,0,0,0,0,0,0,0,0,0,0,0,0,0,0,0,0,0,0,0,0,0,0,0,0,0],"split_type":[0,0,0,0,0,0,0,0,0,0,0,0,0,0,0,0,0,0,0,0,0,0,0,0,0,0,0,0,0,0,0,0,0,0,0,0,0,0,0,0,0,0,0,0,0,0,0,0,0,0,0,0,0,0,0,0,0],"sum_hessian":[4.5723706E2,2.3198938E2,2.2524768E2,1.7495111E2,5.7038265E1,1.9237863E2,3.2869045E1,1.0263629E2,7.231482E1,4.198344E1,1.5054822E1,1.6363086E2,2.8747782E1,9.870699E0,2.2998348E1,1.2318062E1,9.031823E1,6.101215E1,1.1302672E1,2.6509459E1,1.5473982E1,1.7306335E0,1.3324188E1,1.4158087E2,2.2049986E1,7.3572454E0,2.1390537E1,7.643665E0,2.2270336E0,1.4220976E1,8.777372E0,4.87652E0,7.4415417E0,2.898309E0,8.741992E1,2.1815104E1,3.9197044E1,2.3788794E1,2.7206666E0,1.2550509E1,2.9234731E0,1.0441431E1,2.8827574E0,1.3577472E2,5.8061557E0,1.04748E1,1.1575186E1,2.3805287E0,4.976717E0,1.4411639E1,6.978898E0,6.3982105E0,1.2454543E0,1.2777433E1,1.4435425E0,2.2005029E0,6.57687E0],"tree_param":{"num_deleted":"0","num_feature":"40","num_nodes":"57","size_leaf_vector":"1"}},{"base_weights":[-5.574688E-3,-5.7432705E-1,5.845375E-1,1.3162157E-1,-8.47084E-1,2.6362497E-1,7.605819E-2,5.372483E-1,-7.2254884E-1,-1.3817254E-1,-1.0265456E0,7.529123E-1,-4.3480903E-1,7.741049E-1,-4.9876526E-1,-1.239343E-1,-1.1059338E0,-7.652506E-1,5.9535563E-1,-1.2371457E0,-5.993415E-1,9.464272E-1,-3.8201407E-1,-1.353122E0,2.2349817E-1,5.241431E-2,-2.171083E-2,-5.375942E-2,3.4672126E-2,2.9776871E-2,-3.448245E-2,-3.9400373E-2,-6.9956765E-2,1.2353347E-2,-5.420277E-2,4.3906968E-2,-4.0880114E-2,-7.002717E-2,-4.0058628E-2,1.7229395E-2,-3.8765177E-2,6.967291E-2,2.4920868E-2,-3.6589745E-2,5.5859834E-2,-7.3956266E-2,-1.5136281E-2,4.5633014E-2,-2.7133489E-2],"categories":[],"categories_nodes":[],"categories_segments":[],"categories_sizes":[],"default_left":[0,0,0,0,0,0,0,0,0,0,0,0,0,0,0,0,0,0,0,0,0,0,0,0,0,0,0,0,0,0,0,0,0,0,0,0,0,0,0,0,0,0,0,0,0,0,0,0,0],"id":9,"left_children":[1,3,5,7,9,11,-1,13,15,17,19,21,23,25,27,29,31,33,35,37,39,41,43,45,47,-1,-1,-1,-1,-1,-1,-1,-1,-1,-1,-1,-1,-1,-1,-1,-1,-1,-1,-1,-1,-1,-1,-1,-1],"loss_changes":[1.4932704E2,4.373516E1,6.325129E1,2.2564074E1,2.0665436E1,5.588198E1,0E0,1.1175735E1,4.690339E0,1.6184406E1,1.0986511E1,2.1437328E1,4.1171135E1,1.1494528E1,6.4850698E0,4.052473E0,6.619549E-2,5.9360733E0,6.7686696E0,4.2651825E0,7.0674267E0,1.5171455E1,8.087524E0,2.5165367E0,2.092222E1,0E0,0E0,0E0,0E0,0E0,0E0,0E0,0E0,0E0,0E0,0E0,0E0,0E0,0E0,0E0,0E0,0E0,0E0,0E0,0E0,0E0,0E0,0E0,0E0],"parents":[2147483647,0,0,1,1,2,2,3,3,4,4,5,5,7,7,8,8,9,9,10,10,11,11,12,12,13,13,14,14,15,15,16,16,17,17,18,18,19,19,20,20,21,21,22,22,23,23,24,24],"right_children":[2,4,6,8,10,12,-1,14,16,18,20,22,24,26,28,30,32,34,36,38,40,42,44,46,48,-1,-1,-1,-1,-1,-1,-1,-1,-1,-1,-1,-1,-1,-1,-1,-1,-1,-1,-1,-1,-1,-1,-1,-1],"split_conditions":[1.0173256E0,-4.2937693E-1,9.942911E-1,5.35011E-1,5.5422825E-1,1.7390625E-1,7.605819E-2,1.4248421E0,4.743427E-1,1.2663833E0,1.1812826E0,1.4248421E0,1.1812826E0,7.3578936E-1,1.6071422E0,-1.5392838E-1,1.2663833E0,-4.3866023E-1,7.5125E-1,1.6071422E0,1.7390625E-1,-4.4640028E-1,1.7749634E0,3.8264594E0,1.4043282E-4,5.241431E-2,-2.171083E-2,-5.375942E-2,3.4672126E-2,2.9776871E-2,-3.448245E-2,-3.9400373E-2,-6.9956765E-2,1.2353347E-2,-5.420277E-2,4.3906968E-2,-4.0880114E-2,-7.002717E-2,-4.0058628E-2,1.7229395E-2,-3.8765177E-2,6.967291E-2,2.4920868E-2,-3.6589745E-2,5.5859834E-2,-7.3956266E-2,-1.5136281E-2,4.5633014E-2,-2.7133489E-2],"split_indices":[39,20,38,22,13,5,0,12,12,29,26,12,26,0,34,0,29,3,22,34,5,18,37,30,22,0,0,0,0,0,0,0,0,0,0,0,0,0,0,0,0,0,0,0,0,0,0,0,0],"split_type":[0,0,0,0,0,0,0,0,0,0,0,0,0,0,0,0,0,0,0,0,0,0,0,0,0,0,0,0,0,0,0,0,0,0,0,0,0,0,0,0,0,0,0,0,0,0,0,0,0],"sum_hessian":[4.429185E2,2.2555473E2,2.1736375E2,6.3004406E1,1.6255032E2,1.6156639E2,5.579736E1,4.2969948E1,2.0034454E1,3.31946E1,1.2935573E2,9.4962494E1,6.660389E1,3.5179832E1,7.7901163E0,8.338322E0,1.1696134E1,1.787251E1,1.5322086E1,8.5373184E1,4.3982548E1,8.127114E1,1.3691358E1,2.736931E1,3.923458E1,2.9140823E1,6.039009E0,5.3645205E0,2.425596E0,3.6300354E0,4.708286E0,6.9436083E0,4.752525E0,4.1279817E0,1.374453E1,1.3191358E1,2.1307287E0,6.388121E1,2.1491968E1,6.3022013E0,3.7680347E1,4.1278572E1,3.999257E1,1.1574097E1,2.1172605E0,2.4694094E1,2.6752162E0,2.0672182E1,1.85624E1],"tree_param":{"num_deleted":"0","num_feature":"40","num_nodes":"49","size_leaf_vector":"1"}},{"base_weights":[-1.3337221E-2,-5.357902E-1,5.32301E-1,1.5643294E-1,-8.069614E-1,2.1122432E-1,7.423056E-2,4.453913E-1,-9.8495376E-1,-1.0373218E0,-3.7714633E-1,7.14232E-1,-4.7782457E-1,9.631648E-1,-1.5141611E-1,-1.1305902E0,1.3370581E-2,-6.557255E-1,-1.2793761E0,-7.456159E-1,8.115169E-2,9.106181E-1,-4.5337608E-1,-1.3017853E0,1.4351846E-1,6.371334E-2,3.2338542E-3,1.553972E-2,-4.7517177E-2,-7.13937E-2,-2.7949449E-2,-4.7908153E-2,3.805659E-3,-7.214272E-2,-4.6214785E-2,-5.273247E-2,-7.2307704E-4,6.465699E-2,2.5726596E-2,2.9594671E-2,-6.2840834E-2,-7.116094E-2,-2.998954E-3,3.884495E-2,-3.255051E-2],"categories":[],"categories_nodes":[],"categories_segments":[],"categories_sizes":[],"default_left":[0,0,0,0,0,0,0,0,0,0,0,0,0,0,0,0,0,0,0,0,0,0,0,0,0,0,0,0,0,0,0,0,0,0,0,0,0,0,0,0,0,0,0,0,0],"id":10,"left_children":[1,3,5,7,9,11,-1,13,15,17,19,21,23,25,27,29,-1,31,33,35,-1,37,39,41,43,-1,-1,-1,-1,-1,-1,-1,-1,-1,-1,-1,-1,-1,-1,-1,-1,-1,-1,-1,-1],"loss_changes":[1.282254E2,4.32567E1,6.501223E1,2.2045494E1,1.597139E1,5.7352043E1,0E0,1.6512943E1,2.7575274E0,9.046402E0,4.4183678E1,2.230661E1,3.6027893E1,7.2869186E0,9.3652725E0,1.1716871E0,0E0,9.129896E0,1.9914627E0,1.0690437E1,0E0,1.1290916E1,1.2344293E1,3.4781914E0,2.0247778E1,0E0,0E0,0E0,0E0,0E0,0E0,0E0,0E0,0E0,0E0,0E0,0E0,0E0,0E0,0E0,0E0,0E0,0E0,0E0,0E0],"parents":[2147483647,0,0,1,1,2,2,3,3,4,4,5,5,7,7,8,8,9,9,10,10,11,11,12,12,13,13,14,14,15,15,17,17,18,18,19,19,21,21,22,22,23,23,24,24],"right_children":[2,4,6,8,10,12,-1,14,16,18,20,22,24,26,28,30,-1,32,34,36,-1,38,40,42,44,-1,-1,-1,-1,-1,-1,-1,-1,-1,-1,-1,-1,-1,-1,-1,-1,-1,-1,-1,-1],"split_conditions":[1.0173256E0,-4.2937693E-1,9.942911E-1,1.422001E0,1.1812826E0,1.7390625E-1,7.423056E-2,4.743427E-1,2.3050494E0,1.7390625E-1,6.4218295E-1,1.422001E0,1.1812826E0,3.8367292E-1,1.7390625E-1,1.5753499E0,1.3370581E-2,1.5753499E0,1.4248421E0,8.895645E-1,8.115169E-2,-4.4640028E-1,-4.2937693E-1,3.8264594E0,1.4043282E-4,6.371334E-2,3.2338542E-3,1.553972E-2,-4.7517177E-2,-7.13937E-2,-2.7949449E-2,-4.7908153E-2,3.805659E-3,-7.214272E-2,-4.6214785E-2,-5.273247E-2,-7.2307704E-4,6.465699E-2,2.5726596E-2,2.9594671E-2,-6.2840834E-2,-7.116094E-2,-2.998954E-3,3.884495E-2,-3.255051E-2],"split_indices":[39,20,38,6,26,5,0,12,31,5,25,6,26,15,5,10,0,10,12,8,0,18,20,30,22,0,0,0,0,0,0,0,0,0,0,0,0,0,0,0,0,0,0,0,0],"split_type":[0,0,0,0,0,0,0,0,0,0,0,0,0,0,0,0,0,0,0,0,0,0,0,0,0,0,0,0,0,0,0,0,0,0,0,0,0,0,0,0,0,0,0,0,0],"sum_hessian":[4.4780222E2,2.2877058E2,2.1903162E2,6.451225E1,1.6425833E2,1.6348723E2,5.5544388E1,5.1966076E1,1.2546174E1,1.0602212E2,5.8236217E1,9.448E1,6.9007225E1,2.7496775E1,2.4469301E1,1.1318332E1,1.2278426E0,4.258938E1,6.343274E1,4.958311E1,8.653108E0,8.106531E1,1.3414701E1,2.9195742E1,3.9811485E1,2.0545689E1,6.951085E0,1.5830122E1,8.639178E0,6.765256E0,4.5530753E0,3.0442495E1,1.2146884E1,4.4361553E1,1.9071188E1,3.523101E1,1.4352101E1,4.1912468E1,3.915284E1,5.877148E0,7.537553E0,2.7010508E1,2.1852345E0,2.2242601E1,1.7568884E1],"tree_param":{"num_deleted":"0","num_feature":"40","num_nodes":"45","size_leaf_vector":"1"}},{"base_weights":[2.0624429E-2,-4.8714727E-1,5.453693E-1,-8.1767756E-1,1.0324567E-1,2.3368366E-1,7.235001E-2,-2.8144577E-1,-9.9667054E-1,8.988049E-1,-5.2820766E-1,-2.2978972E-1,9.496937E-1,-6.2517667E-1,5.5326724E-1,-1.1464161E0,-6.657723E-1,1.1152756E0,8.6801246E-2,7.187148E-2,-8.9350706E-1,-6.437537E-1,6.7988473E-1,1.1464554E0,-2.5430623E-1,4.07783E-2,-4.398484E-2,6.360617E-3,6.582555E-2,-6.0015168E-2,7.1691885E-3,4.0801477E-2,-3.935919E-2,6.632973E-2,1.1940492E-2,-3.998514E-2,6.935894E-2,-6.047601E-2,-1.2999528E-2,-1.6961025E-2,-6.824779E-2,-5.805944E-3,7.560631E-2,2.3868987E-2,6.3843936E-2,-5.6741696E-2,4.5095976E-2],"categories":[],"categories_nodes":[],"categories_segments":[],"categories_sizes":[],"default_left":[0,0,0,0,0,0,0,0,0,0,0,0,0,0,0,0,0,0,0,0,0,0,0,0,0,0,0,0,0,0,0,0,0,0,0,0,0,0,0,0,0,0,0,0,0,0,0],"id":11,"left_children":[1,3,5,7,9,11,-1,13,15,17,19,21,23,25,27,29,31,33,35,-1,37,39,41,43,45,-1,-1,-1,-1,-1,-1,-1,-1,-1,-1,-1,-1,-1,-1,-1,-1,-1,-1,-1,-1,-1,-1],"loss_changes":[1.18037224E2,4.4023132E1,5.9052574E1,1.358506E1,4.1518024E1,5.391251E1,0E0,1.1118581E1,4.583969E0,6.3230114E0,3.396582E1,3.7728813E1,1.5399754E1,9.8769E0,3.4724321E0,3.1199112E0,6.2538166E0,4.4199066E0,1.0811916E1,0E0,7.090519E0,1.4384314E1,2.0246677E1,3.3873749E0,1.0558275E1,0E0,0E0,0E0,0E0,0E0,0E0,0E0,0E0,0E0,0E0,0E0,0E0,0E0,0E0,0E0,0E0,0E0,0E0,0E0,0E0,0E0,0E0],"parents":[2147483647,0,0,1,1,2,2,3,3,4,4,5,5,7,7,8,8,9,9,10,10,11,11,12,12,13,13,14,14,15,15,16,16,17,17,18,18,20,20,21,21,22,22,23,23,24,24],"right_children":[2,4,6,8,10,12,-1,14,16,18,20,22,24,26,28,30,32,34,36,-1,38,40,42,44,46,-1,-1,-1,-1,-1,-1,-1,-1,-1,-1,-1,-1,-1,-1,-1,-1,-1,-1,-1,-1,-1,-1],"split_conditions":[1.0173256E0,1.9336085E-1,9.942911E-1,-4.2937693E-1,1.7390625E-1,1.9336085E-1,7.235001E-2,1.4981929E0,1.1812826E0,-2.3577109E-1,1.5753499E0,1.4981929E0,5.6754977E-1,-1.5635682E0,5.3394866E-1,3.2647994E0,-8.1204367E-1,1.3219855E0,1.4981929E0,7.187148E-2,7.934543E-1,4.140265E-2,5.3394866E-1,-8.7334716E-1,1.6581775E0,4.07783E-2,-4.398484E-2,6.360617E-3,6.582555E-2,-6.0015168E-2,7.1691885E-3,4.0801477E-2,-3.935919E-2,6.632973E-2,1.1940492E-2,-3.998514E-2,6.935894E-2,-6.047601E-2,-1.2999528E-2,-1.6961025E-2,-6.824779E-2,-5.805944E-3,7.560631E-2,2.3868987E-2,6.3843936E-2,-5.6741696E-2,4.5095976E-2],"split_indices":[39,21,38,20,5,21,0,23,26,14,10,23,14,8,24,17,16,2,23,0,8,7,24,1,36,0,0,0,0,0,0,0,0,0,0,0,0,0,0,0,0,0,0,0,0,0,0],"split_type":[0,0,0,0,0,0,0,0,0,0,0,0,0,0,0,0,0,0,0,0,0,0,0,0,0,0,0,0,0,0,0,0,0,0,0,0,0,0,0,0,0,0,0,0,0,0,0],"sum_hessian":[4.4100137E2,2.2416185E2,2.1683954E2,1.434607E2,8.070115E1,1.608021E2,5.603745E1,3.654641E1,1.0691429E2,3.5522923E1,4.5178223E1,9.802777E1,6.2774323E1,2.6064287E1,1.0482123E1,7.19082E1,3.500608E1,2.7751268E1,7.771652E0,6.709023E0,3.84692E1,6.757078E1,3.0456993E1,5.399764E1,8.776681E0,3.3923814E0,2.2671906E1,7.374115E0,3.108008E0,7.02743E1,1.6339068E0,1.9333117E0,3.307277E1,2.2507105E1,5.244163E0,4.843551E0,2.928101E0,2.5766155E1,1.2703046E1,4.7724686E1,1.9846096E1,1.5757365E1,1.4699627E1,8.068714E0,4.5928925E1,5.0160766E0,3.7606041E0],"tree_param":{"num_deleted":"0","num_feature":"40","num_nodes":"47","size_leaf_vector":"1"}},{"base_weights":[-1.0322462E-3,-5.0651544E-1,5.229467E-1,-8.077254E-1,4.072601E-2,7.477896E-1,-6.581851E-1,-3.0682296E-1,-9.7053385E-1,7.6156664E-1,-5.124826E-1,9.346786E-1,-4.873348E-1,-8.4876645E-1,5.8475945E-2,-2.5193868E-2,-6.442686E-2,-1.1431273E0,-5.9780955E-1,1.175925E0,2.9225472E-1,-1.001739E0,1.4128621E-1,1.0575007E0,9.926439E-2,6.920986E-1,-8.354524E-1,5.1634514E-1,-9.901759E-1,3.694864E-2,-1.5320929E-2,-5.983442E-2,6.5281745E-3,-3.8589466E-2,2.7498852E-2,6.630574E-2,1.332884E-2,5.1188916E-2,-1.2987707E-2,-2.277098E-2,-6.43202E-2,3.487065E-2,-3.153188E-2,5.606044E-2,-1.9043451E-2,5.564886E-2,-2.8155874E-2,5.014282E-2,-1.2956063E-2,-5.33043E-2,5.30024E-2,-1.37334E-3,4.566107E-2,-5.6354094E-2,4.3057077E-2],"categories":[],"categories_nodes":[],"categories_segments":[],"categories_sizes":[],"default_left":[0,0,0,0,0,0,0,0,0,0,0,0,0,0,0,0,0,0,0,0,0,0,0,0,0,0,0,0,0,0,0,0,0,0,0,0,0,0,0,0,0,0,0,0,0,0,0,0,0,0,0,0,0,0,0],"id":12,"left_children":[1,3,5,7,9,11,13,15,17,19,21,23,25,27,-1,29,-1,31,33,35,37,39,41,43,45,47,49,51,53,-1,-1,-1,-1,-1,-1,-1,-1,-1,-1,-1,-1,-1,-1,-1,-1,-1,-1,-1,-1,-1,-1,-1,-1,-1,-1],"loss_changes":[1.1571757E2,3.668751E1,5.7463295E1,1.14028015E1,3.2251083E1,4.216346E1,1.2964342E1,9.854673E0,6.252571E0,6.4809036E0,1.479186E1,1.603331E1,1.0598072E1,6.7054787E0,0E0,6.284966E0,0E0,3.0319214E0,6.983465E0,1.7592297E0,7.18941E0,3.2421894E0,8.879178E0,8.800369E0,1.4366504E1,1.9384885E0,8.715348E0,7.813276E-1,7.1903E0,0E0,0E0,0E0,0E0,0E0,0E0,0E0,0E0,0E0,0E0,0E0,0E0,0E0,0E0,0E0,0E0,0E0,0E0,0E0,0E0,0E0,0E0,0E0,0E0,0E0,0E0],"parents":[2147483647,0,0,1,1,2,2,3,3,4,4,5,5,6,6,7,7,8,8,9,9,10,10,11,11,12,12,13,13,15,15,17,17,18,18,19,19,20,20,21,21,22,22,23,23,24,24,25,25,26,26,27,27,28,28],"right_children":[2,4,6,8,10,12,14,16,18,20,22,24,26,28,-1,30,-1,32,34,36,38,40,42,44,46,48,50,52,54,-1,-1,-1,-1,-1,-1,-1,-1,-1,-1,-1,-1,-1,-1,-1,-1,-1,-1,-1,-1,-1,-1,-1,-1,-1,-1],"split_conditions":[1.0173256E0,1.9336085E-1,1.4248421E0,-4.2937693E-1,1.7390625E-1,1.422001E0,1.7749634E0,1.422001E0,1.1812826E0,6.487775E-1,1.6581775E0,1.4225379E0,-7.713183E-1,-8.5631937E-1,5.8475945E-2,5.5422825E-1,-6.442686E-2,3.2647994E0,2.3050494E0,-1.3008393E-1,-4.8757252E-1,4.9193883E-1,6.487775E-1,1.7459441E0,-7.2866994E-1,-4.4640028E-1,1.7749634E0,1.1812826E0,9.942911E-1,3.694864E-2,-1.5320929E-2,-5.983442E-2,6.5281745E-3,-3.8589466E-2,2.7498852E-2,6.630574E-2,1.332884E-2,5.1188916E-2,-1.2987707E-2,-2.277098E-2,-6.43202E-2,3.487065E-2,-3.153188E-2,5.606044E-2,-1.9043451E-2,5.564886E-2,-2.8155874E-2,5.014282E-2,-1.2956063E-2,-5.33043E-2,5.30024E-2,-1.37334E-3,4.566107E-2,-5.6354094E-2,4.3057077E-2],"split_indices":[39,21,12,20,5,6,37,6,26,4,36,3,14,7,0,13,0,17,31,20,0,3,4,7,20,18,37,26,38,0,0,0,0,0,0,0,0,0,0,0,0,0,0,0,0,0,0,0,0,0,0,0,0,0,0],"split_type":[0,0,0,0,0,0,0,0,0,0,0,0,0,0,0,0,0,0,0,0,0,0,0,0,0,0,0,0,0,0,0,0,0,0,0,0,0,0,0,0,0,0,0,0,0,0,0,0,0,0,0,0,0,0,0],"sum_hessian":[4.348966E2,2.2137204E2,2.1352457E2,1.424754E2,7.889662E1,1.7968602E2,3.383855E1,3.5656834E1,1.0681857E2,3.409439E1,4.480223E1,1.5628195E2,2.3404062E1,3.1087729E1,2.7508235E0,2.8346878E1,7.309953E0,7.1597664E1,3.522091E1,1.7307688E1,1.6786703E1,2.5320816E1,1.9481415E1,1.3601872E2,2.0263233E1,5.108428E0,1.8295633E1,2.669171E0,2.8418556E1,7.1743746E0,2.1172504E1,6.9955795E1,1.6418712E0,3.1180994E1,4.039916E0,1.484749E1,2.4601982E0,6.928944E0,9.857759E0,8.961021E0,1.6359795E1,1.1421045E1,8.0603695E0,1.3229588E2,3.722837E0,7.7630186E0,1.2500215E1,3.873304E0,1.2351243E0,1.684534E1,1.4502927E0,1.4805121E0,1.188659E0,2.7104666E1,1.3138916E0],"tree_param":{"num_deleted":"0","num_feature":"40","num_nodes":"55","size_leaf_vector":"1"}},{"base_weights":[-5.550029E-4,3.9805126E-1,-5.561618E-1,5.998537E-1,-8.066102E-1,-8.255828E-1,-1.7711276E-2,2.3267603E-1,1.0755668E0,-1.4192203E-1,-1.1013043E0,-1.0726007E0,-3.7888703E-1,7.0004106E-2,-3.1702986E-1,7.21345E-1,-2.6156345E-1,1.1852478E0,1.4587821E-2,-6.2989837E-1,7.2845465E-1,-1.1902904E-1,-1.1991309E0,-5.094277E-2,-1.1804936E0,-5.242418E-1,6.800433E-2,4.3929848E-1,-8.578296E-1,4.279313E-2,-3.6725987E-2,-2.6817895E-2,2.3269983E-2,6.2225252E-2,-1.3676759E-2,2.1655912E-2,-5.603253E-2,-5.1416263E-2,1.6379079E-2,6.0469173E-3,5.3763926E-2,-2.5049286E-2,1.5504011E-2,-7.057157E-2,-4.0296406E-2,5.5179033E-2,-4.2677503E-2,-2.7684742E-3,-6.1448846E-2,-3.9029517E-3,-5.021234E-2,5.4832675E-2,-3.5661124E-3,4.8351005E-2,-4.9183656E-2],"categories":[],"categories_nodes":[],"categories_segments":[],"categories_sizes":[],"default_left":[0,0,0,0,0,0,0,0,0,0,0,0,0,0,0,0,0,0,0,0,0,0,0,0,0,0,0,0,0,0,0,0,0,0,0,0,0,0,0,0,0,0,0,0,0,0,0,0,0,0,0,0,0,0,0],"id":13,"left_children":[1,3,5,7,9,11,13,15,17,19,21,23,25,-1,27,29,31,33,35,37,39,41,43,45,47,49,-1,51,53,-1,-1,-1,-1,-1,-1,-1,-1,-1,-1,-1,-1,-1,-1,-1,-1,-1,-1,-1,-1,-1,-1,-1,-1,-1,-1],"loss_changes":[9.444076E1,6.0845734E1,2.5827183E1,3.6997375E1,6.9056873E0,1.2691727E1,2.5607006E1,2.9564085E1,1.076046E1,5.649927E0,2.2432919E0,8.305214E0,1.1612963E1,0E0,2.1050705E1,1.1106136E1,1.1880351E1,4.723007E0,4.8992496E0,3.3433888E0,8.4199023E-1,6.794403E-1,6.1045456E-1,8.305601E0,1.9075394E0,8.412119E0,0E0,7.1250534E0,6.705061E0,0E0,0E0,0E0,0E0,0E0,0E0,0E0,0E0,0E0,0E0,0E0,0E0,0E0,0E0,0E0,0E0,0E0,0E0,0E0,0E0,0E0,0E0,0E0,0E0,0E0,0E0],"parents":[2147483647,0,0,1,1,2,2,3,3,4,4,5,5,6,6,7,7,8,8,9,9,10,10,11,11,12,12,14,14,15,15,16,16,17,17,18,18,19,19,20,20,21,21,22,22,23,23,24,24,25,25,27,27,28,28],"right_children":[2,4,6,8,10,12,14,16,18,20,22,24,26,-1,28,30,32,34,36,38,40,42,44,46,48,50,-1,52,54,-1,-1,-1,-1,-1,-1,-1,-1,-1,-1,-1,-1,-1,-1,-1,-1,-1,-1,-1,-1,-1,-1,-1,-1,-1,-1],"split_conditions":[5.5422825E-1,1.2459644E0,1.9336085E-1,1.9336085E-1,-6.12107E-1,1.1812826E0,1.5753499E0,6.487775E-1,2.7969005E0,1.1812826E0,-4.4708994E-1,-9.0520513E-1,1.6071422E0,7.0004106E-2,-4.6021014E-1,1.4225379E0,1.6071422E0,1.9649671E0,5.479018E-1,1.5753499E0,-6.7141765E-1,3.3930883E-1,5.194241E-1,-1.0226492E0,-1.9453785E0,4.9193883E-1,6.800433E-2,6.487775E-1,-6.374315E-1,4.279313E-2,-3.6725987E-2,-2.6817895E-2,2.3269983E-2,6.2225252E-2,-1.3676759E-2,2.1655912E-2,-5.603253E-2,-5.1416263E-2,1.6379079E-2,6.0469173E-3,5.3763926E-2,-2.5049286E-2,1.5504011E-2,-7.057157E-2,-4.0296406E-2,5.5179033E-2,-4.2677503E-2,-2.7684742E-3,-6.1448846E-2,-3.9029517E-3,-5.021234E-2,5.4832675E-2,-3.5661124E-3,4.8351005E-2,-4.9183656E-2],"split_indices":[13,22,21,21,7,26,10,4,21,26,15,14,34,0,7,3,34,20,8,10,8,7,17,8,22,3,0,4,14,0,0,0,0,0,0,0,0,0,0,0,0,0,0,0,0,0,0,0,0,0,0,0,0,0,0],"split_type":[0,0,0,0,0,0,0,0,0,0,0,0,0,0,0,0,0,0,0,0,0,0,0,0,0,0,0,0,0,0,0,0,0,0,0,0,0,0,0,0,0,0,0,0,0,0,0,0,0,0,0,0,0,0,0],"sum_hessian":[4.244304E2,2.4729695E2,1.7713345E2,2.1224428E2,3.5052673E1,1.1770494E2,5.942851E1,1.20627464E2,9.161681E1,1.1222254E1,2.3830418E1,7.489026E1,4.2814682E1,9.883897E0,4.954461E1,6.04245E1,6.0202965E1,8.292693E1,8.689879E0,7.367795E0,3.854459E0,2.359134E0,2.1471283E1,7.294013E0,6.7596245E1,4.0106697E1,2.7079842E0,2.073443E1,2.8810179E1,5.622093E1,4.2035723E0,4.418281E1,1.6020153E1,8.107753E1,1.8494059E0,6.802746E0,1.8871338E0,5.224501E0,2.1432936E0,1.820432E0,2.034027E0,1.1689008E0,1.190233E0,1.3107987E1,8.3632965E0,2.83334E0,4.460673E0,1.5684371E0,6.602781E1,2.0945581E1,1.9161116E1,8.718524E0,1.2015906E1,1.178016E0,2.7632164E1],"tree_param":{"num_deleted":"0","num_feature":"40","num_nodes":"55","size_leaf_vector":"1"}},{"base_weights":[9.65629E-3,-4.4173953E-1,4.8470375E-1,-6.660367E-1,2.576871E-1,6.896035E-1,-5.943881E-1,-1.0032004E0,-2.2747897E-1,6.836816E-1,-5.3389096E-1,8.5981697E-1,-4.0494892E-1,-8.681505E-1,3.0098543E-1,-2.4362403E-1,-1.1019362E0,-3.5776594E-1,6.667054E-2,-4.0229884E-1,9.15201E-1,2.1872778E-1,-1.0651095E0,1.010596E0,-1.2203294E-2,7.647327E-1,-7.3225486E-1,-1.7873831E-2,-1.1713269E0,-5.8394414E-1,7.723342E-1,-3.427203E-2,2.134832E-2,-3.1781808E-2,-6.235763E-2,-3.9458606E-2,-2.7157152E-3,3.8746312E-2,-5.3870827E-2,5.5644196E-2,-2.3271289E-2,3.2779824E-2,-4.8684537E-2,1.2601981E-2,-6.5743685E-2,5.3733975E-2,-5.5674188E-2,3.273344E-2,-4.8351288E-2,4.650639E-2,5.6910976E-3,-5.313358E-2,-2.9575475E-4,4.997371E-2,-3.7422515E-2,1.7086829E-3,-6.566756E-2,-4.9197126E-2,1.064168E-3,-9.528935E-3,5.291098E-2],"categories":[],"categories_nodes":[],"categories_segments":[],"categories_sizes":[],"default_left":[0,0,0,0,0,0,0,0,0,0,0,0,0,0,0,0,0,0,0,0,0,0,0,0,0,0,0,0,0,0,0,0,0,0,0,0,0,0,0,0,0,0,0,0,0,0,0,0,0,0,0,0,0,0,0,0,0,0,0,0,0],"id":14,"left_children":[1,3,5,7,9,11,13,15,17,19,21,23,25,27,29,31,33,35,-1,37,39,41,43,45,47,49,51,53,55,57,59,-1,-1,-1,-1,-1,-1,-1,-1,-1,-1,-1,-1,-1,-1,-1,-1,-1,-1,-1,-1,-1,-1,-1,-1,-1,-1,-1,-1,-1,-1],"loss_changes":[9.16886E1,3.456916E1,4.647151E1,2.4361755E1,1.8561298E1,3.3053093E1,8.541805E0,6.760666E0,1.5191901E1,9.298933E0,8.005648E0,2.0028954E1,9.864812E0,6.7146244E0,4.060156E0,3.7117782E0,4.0560455E0,8.662402E0,0E0,6.086986E0,7.6790295E0,5.0394206E0,3.7382793E0,1.3171326E1,1.4978717E1,4.590385E-1,4.3938465E0,6.362152E0,2.7680016E0,8.457129E-1,1.7455552E0,0E0,0E0,0E0,0E0,0E0,0E0,0E0,0E0,0E0,0E0,0E0,0E0,0E0,0E0,0E0,0E0,0E0,0E0,0E0,0E0,0E0,0E0,0E0,0E0,0E0,0E0,0E0,0E0,0E0,0E0],"parents":[2147483647,0,0,1,1,2,2,3,3,4,4,5,5,6,6,7,7,8,8,9,9,10,10,11,11,12,12,13,13,14,14,15,15,16,16,17,17,19,19,20,20,21,21,22,22,23,23,24,24,25,25,26,26,27,27,28,28,29,29,30,30],"right_children":[2,4,6,8,10,12,14,16,18,20,22,24,26,28,30,32,34,36,-1,38,40,42,44,46,48,50,52,54,56,58,60,-1,-1,-1,-1,-1,-1,-1,-1,-1,-1,-1,-1,-1,-1,-1,-1,-1,-1,-1,-1,-1,-1,-1,-1,-1,-1,-1,-1,-1,-1],"split_conditions":[1.0173256E0,1.6071422E0,1.4248421E0,1.1812826E0,-4.271367E-2,1.422001E0,1.016492E0,-7.851987E-1,1.6724538E0,-8.7334716E-1,5.5615854E-1,1.0670881E0,-7.713183E-1,5.5615854E-1,-4.414026E-1,1.5753499E0,5.5422825E-1,-1.1093877E-1,6.667054E-2,-9.0275836E-1,1.0670881E0,8.2145715E-1,5.5422825E-1,2.8759615E0,-2.9373115E-1,-7.440005E-1,2.1332894E-2,-5.035447E-1,-8.763368E-1,5.992757E-1,-7.431989E-1,-3.427203E-2,2.134832E-2,-3.1781808E-2,-6.235763E-2,-3.9458606E-2,-2.7157152E-3,3.8746312E-2,-5.3870827E-2,5.5644196E-2,-2.3271289E-2,3.2779824E-2,-4.8684537E-2,1.2601981E-2,-6.5743685E-2,5.3733975E-2,-5.5674188E-2,3.273344E-2,-4.8351288E-2,4.650639E-2,5.6910976E-3,-5.313358E-2,-2.9575475E-4,4.997371E-2,-3.7422515E-2,1.7086829E-3,-6.566756E-2,-4.9197126E-2,1.064168E-3,-9.528935E-3,5.291098E-2],"split_indices":[39,34,12,26,0,6,8,7,35,1,16,20,14,16,6,10,13,8,0,22,20,8,13,15,8,18,19,14,7,9,1,0,0,0,0,0,0,0,0,0,0,0,0,0,0,0,0,0,0,0,0,0,0,0,0,0,0,0,0,0,0],"split_type":[0,0,0,0,0,0,0,0,0,0,0,0,0,0,0,0,0,0,0,0,0,0,0,0,0,0,0,0,0,0,0,0,0,0,0,0,0,0,0,0,0,0,0,0,0,0,0,0,0,0,0,0,0,0,0,0,0,0,0,0,0],"sum_hessian":[4.255849E2,2.1826088E2,2.07324E2,1.6529926E2,5.2961624E1,1.7454253E2,3.2781487E1,9.2724815E1,7.257444E1,3.4520454E1,1.8441172E1,1.51238E2,2.3304514E1,2.5128729E1,7.6527576E0,1.1065456E1,8.1659355E1,6.760694E1,4.9675007E0,5.936528E0,2.8583927E1,7.8738813E0,1.056729E1,1.2880731E2,2.2430695E1,4.803166E0,1.8501348E1,6.883234E0,1.8245495E1,2.5765526E0,5.076205E0,6.707487E0,4.3579698E0,1.7835064E1,6.382429E1,2.7891972E1,3.971497E1,2.081128E0,3.8554E0,2.5499763E1,3.084163E0,6.1147637E0,1.7591176E0,1.5333883E0,9.033902E0,1.2665502E2,2.1522913E0,1.3388493E1,9.042202E0,3.591345E0,1.2118207E0,1.2655307E1,5.8460417E0,2.7215998E0,4.1616344E0,1.684816E0,1.6560678E1,1.2140701E0,1.3624825E0,1.1669204E0,3.9092846E0],"tree_param":{"num_deleted":"0","num_feature":"40","num_nodes":"61","size_leaf_vector":"1"}},{"base_weights":[7.7776527E-3,4.505985E-1,-4.147736E-1,4.8741102E-2,9.833885E-1,-9.9906576E-1,1.6705702E-1,-2.9881412E-1,8.038169E-1,1.1627033E0,5.355146E-1,-5.659595E-1,-1.1021081E0,7.5847983E-1,-2.4816169E-1,-4.322365E-2,-1.1703678E0,1.0744845E0,-6.0898316E-1,1.23406E0,5.348099E-1,7.623058E-1,-5.1938303E-2,1.24447726E-1,-1.0144136E0,-1.1525855E0,8.972637E-2,9.2509025E-1,-4.194892E-1,-6.571856E-1,3.4928468E-1,-7.0016846E-2,6.7928596E-3,-6.678429E-2,5.3432337E-3,1.5775288E-2,6.455277E-2,1.4000654E-2,-4.812708E-2,6.49511E-2,2.761043E-2,7.3086034E-4,5.110075E-2,4.9730916E-2,-2.6826873E-2,-3.6900308E-2,3.5388127E-2,-6.50702E-3,-6.1580095E-2,-6.0185205E-2,4.3264925E-3,-4.7856346E-2,5.0606556E-2,5.5198744E-2,-5.480347E-3,2.2969896E-2,-4.4095464E-2,-6.6874295E-2,-1.487617E-2,-9.407649E-3,5.0926905E-2],"categories":[],"categories_nodes":[],"categories_segments":[],"categories_sizes":[],"default_left":[0,0,0,0,0,0,0,0,0,0,0,0,0,0,0,0,0,0,0,0,0,0,0,0,0,0,0,0,0,0,0,0,0,0,0,0,0,0,0,0,0,0,0,0,0,0,0,0,0,0,0,0,0,0,0,0,0,0,0,0,0],"id":15,"left_children":[1,3,5,7,9,11,13,15,17,19,21,23,25,27,29,31,33,35,37,39,41,43,-1,45,47,49,51,53,55,57,59,-1,-1,-1,-1,-1,-1,-1,-1,-1,-1,-1,-1,-1,-1,-1,-1,-1,-1,-1,-1,-1,-1,-1,-1,-1,-1,-1,-1,-1,-1],"loss_changes":[7.8325615E1,4.3712646E1,7.2989746E1,3.1092094E1,6.430664E0,4.1524734E0,2.6755966E1,1.8045372E1,1.4928242E1,2.1117249E0,1.028532E1,7.1310697E0,5.241028E0,9.194706E0,1.5946497E1,1.5187021E1,3.4283333E0,4.272583E0,2.2287908E0,8.529892E-1,1.9537015E0,7.153926E0,0E0,5.2443666E0,2.2261887E0,3.0074158E0,5.0214067E0,6.5927773E0,2.8152246E0,8.837412E0,9.48574E0,0E0,0E0,0E0,0E0,0E0,0E0,0E0,0E0,0E0,0E0,0E0,0E0,0E0,0E0,0E0,0E0,0E0,0E0,0E0,0E0,0E0,0E0,0E0,0E0,0E0,0E0,0E0,0E0,0E0,0E0],"parents":[2147483647,0,0,1,1,2,2,3,3,4,4,5,5,6,6,7,7,8,8,9,9,10,10,11,11,12,12,13,13,14,14,15,15,16,16,17,17,18,18,19,19,20,20,21,21,23,23,24,24,25,25,26,26,27,27,28,28,29,29,30,30],"right_children":[2,4,6,8,10,12,14,16,18,20,22,24,26,28,30,32,34,36,38,40,42,44,-1,46,48,50,52,54,56,58,60,-1,-1,-1,-1,-1,-1,-1,-1,-1,-1,-1,-1,-1,-1,-1,-1,-1,-1,-1,-1,-1,-1,-1,-1,-1,-1,-1,-1,-1,-1],"split_conditions":[1.7390625E-1,1.9336085E-1,1.6581775E0,1.4981929E0,-1.5392838E-1,-4.7615665E-1,5.5615854E-1,1.4248421E0,1.422001E0,1.4248421E0,1.422001E0,4.4640028E-1,3.779557E0,1.4248421E0,1.6783912E-1,-1.0034955E0,2.3050494E0,6.525721E-1,5.5615854E-1,1.3219855E0,1.6071422E0,2.7969005E0,-5.1938303E-2,6.525721E-1,-3.7635782E-1,2.5105083E0,1.020243E0,1.422001E0,2.942104E-1,6.525721E-1,1.9336085E-1,-7.0016846E-2,6.7928596E-3,-6.678429E-2,5.3432337E-3,1.5775288E-2,6.455277E-2,1.4000654E-2,-4.812708E-2,6.49511E-2,2.761043E-2,7.3086034E-4,5.110075E-2,4.9730916E-2,-2.6826873E-2,-3.6900308E-2,3.5388127E-2,-6.50702E-3,-6.1580095E-2,-6.0185205E-2,4.3264925E-3,-4.7856346E-2,5.0606556E-2,5.5198744E-2,-5.480347E-3,2.2969896E-2,-4.4095464E-2,-6.6874295E-2,-1.487617E-2,-9.407649E-3,5.0926905E-2],"split_indices":[5,21,36,23,0,12,16,12,6,12,6,18,17,12,1,1,31,33,16,2,34,21,0,33,0,1,32,6,2,33,21,0,0,0,0,0,0,0,0,0,0,0,0,0,0,0,0,0,0,0,0,0,0,0,0,0,0,0,0,0,0],"split_type":[0,0,0,0,0,0,0,0,0,0,0,0,0,0,0,0,0,0,0,0,0,0,0,0,0,0,0,0,0,0,0,0,0,0,0,0,0,0,0,0,0,0,0,0,0,0,0,0,0,0,0,0,0,0,0,0,0,0,0,0,0],"sum_hessian":[4.1659842E2,2.0338782E2,2.132106E2,1.1656216E2,8.682565E1,1.0602248E2,1.0718813E2,8.023493E1,3.6327225E1,6.086225E1,2.59634E1,2.162424E1,8.439824E1,4.3871883E1,6.331625E1,6.28525E1,1.7382433E1,3.0687506E1,5.63972E0,5.378452E1,7.0777297E0,2.3103355E1,2.8600454E0,8.799566E0,1.2824675E1,8.100058E1,3.3976557E0,3.8623672E1,5.248209E0,3.7525524E1,2.5790726E1,6.5661783E0,5.628632E1,1.563357E1,1.7488631E0,6.6940904E0,2.3993416E1,1.6020201E0,4.0376997E0,5.000173E1,3.7827897E0,3.8395448E0,3.238185E0,2.0024996E1,3.07836E0,3.4272614E0,5.3723054E0,2.601928E0,1.0222747E1,7.921227E1,1.788307E0,1.5700257E0,1.82763E0,3.3447945E1,5.1757307E0,1.7744179E0,3.4737911E0,1.2500753E1,2.5024769E1,1.4555195E1,1.1235531E1],"tree_param":{"num_deleted":"0","num_feature":"40","num_nodes":"61","size_leaf_vector":"1"}},{"base_weights":[-5.8901478E-3,5.077122E-1,-4.1668227E-1,7.077614E-1,-6.8340087E-1,-6.94454E-1,1.06904484E-1,2.6871777E-1,1.0325905E0,1.7589138E-1,-1.0967716E0,-2.108713E-1,-8.6094284E-1,6.585386E-2,-1.2734404E-1,-1.1092985E-1,7.153944E-1,1.1340493E0,1.5820698E-1,-6.309724E-1,8.4620076E-1,-3.5466048E-1,-6.913571E-2,-4.0113753E-1,8.80948E-1,-9.6886635E-1,-2.5064984E-1,5.331711E-1,-5.6279176E-1,2.7699877E-2,-2.7119648E-2,4.3895125E-2,-3.9021794E-2,6.163041E-2,1.5135123E-2,-4.7030088E-2,4.7488067E-2,-4.7197983E-2,-1.0126095E-3,5.802344E-2,-8.4696775E-3,-4.9226426E-2,3.3304807E-2,1.01781245E-2,-3.4989573E-2,5.7851844E-2,9.316313E-3,-2.8873475E-2,-5.427156E-2,-3.483182E-2,6.158151E-2,3.4712255E-2,-3.3392824E-2,3.4625106E-3,-4.522858E-2],"categories":[],"categories_nodes":[],"categories_segments":[],"categories_sizes":[],"default_left":[0,0,0,0,0,0,0,0,0,0,0,0,0,0,0,0,0,0,0,0,0,0,0,0,0,0,0,0,0,0,0,0,0,0,0,0,0,0,0,0,0,0,0,0,0,0,0,0,0,0,0,0,0,0,0],"id":16,"left_children":[1,3,5,7,9,11,13,15,17,19,21,23,25,-1,27,29,31,33,35,37,39,41,-1,43,45,47,49,51,53,-1,-1,-1,-1,-1,-1,-1,-1,-1,-1,-1,-1,-1,-1,-1,-1,-1,-1,-1,-1,-1,-1,-1,-1,-1,-1],"loss_changes":[8.7672676E1,4.448665E1,3.3651615E1,2.2341728E1,9.806232E0,1.1973923E1,2.2630232E1,1.1745865E1,7.876465E0,5.7544165E0,3.0730495E0,8.66103E0,7.133194E0,0E0,1.9989658E1,1.0784821E1,7.5301437E0,4.7755814E0,9.732166E0,8.75577E-1,1.8777394E0,4.412754E0,0E0,6.099573E0,9.023557E-1,3.0684433E0,1.2311244E1,5.3251457E0,8.614807E0,0E0,0E0,0E0,0E0,0E0,0E0,0E0,0E0,0E0,0E0,0E0,0E0,0E0,0E0,0E0,0E0,0E0,0E0,0E0,0E0,0E0,0E0,0E0,0E0,0E0,0E0],"parents":[2147483647,0,0,1,1,2,2,3,3,4,4,5,5,6,6,7,7,8,8,9,9,10,10,11,11,12,12,14,14,15,15,16,16,17,17,18,18,19,19,20,20,21,21,23,23,24,24,25,25,26,26,27,27,28,28],"right_children":[2,4,6,8,10,12,14,16,18,20,22,24,26,-1,28,30,32,34,36,38,40,42,-1,44,46,48,50,52,54,-1,-1,-1,-1,-1,-1,-1,-1,-1,-1,-1,-1,-1,-1,-1,-1,-1,-1,-1,-1,-1,-1,-1,-1,-1,-1],"split_conditions":[6.487775E-1,1.4225379E0,1.9336085E-1,1.0173256E0,-4.2937693E-1,-4.2937693E-1,1.5753499E0,1.9336085E-1,1.3219855E0,1.9336085E-1,5.5615854E-1,1.3972743E0,2.2220883E0,6.585386E-2,-5.2991784E-1,5.5615854E-1,1.366381E0,1.2369838E0,1.1812826E0,9.942911E-1,-1.0188428E-1,1.1812826E0,-6.913571E-2,5.5615854E-1,-7.1148753E-1,-4.414026E-1,6.4218295E-1,1.9898403E0,4.9193883E-1,2.7699877E-2,-2.7119648E-2,4.3895125E-2,-3.9021794E-2,6.163041E-2,1.5135123E-2,-4.7030088E-2,4.7488067E-2,-4.7197983E-2,-1.0126095E-3,5.802344E-2,-8.4696775E-3,-4.9226426E-2,3.3304807E-2,1.01781245E-2,-3.4989573E-2,5.7851844E-2,9.316313E-3,-2.8873475E-2,-5.427156E-2,-3.483182E-2,6.158151E-2,3.4712255E-2,-3.3392824E-2,3.4625106E-3,-4.522858E-2],"split_indices":[4,3,21,39,20,20,10,21,2,21,16,8,28,0,7,16,20,14,26,38,14,26,0,16,7,6,25,4,3,0,0,0,0,0,0,0,0,0,0,0,0,0,0,0,0,0,0,0,0,0,0,0,0,0,0],"split_type":[0,0,0,0,0,0,0,0,0,0,0,0,0,0,0,0,0,0,0,0,0,0,0,0,0,0,0,0,0,0,0,0,0,0,0,0,0,0,0,0,0,0,0,0,0,0,0,0,0,0,0,0,0,0,0],"sum_hessian":[4.1353952E2,1.836682E2,2.2987132E2,1.5760414E2,2.6064053E1,1.4997871E2,7.989262E1,6.7796585E1,8.9807556E1,8.652406E0,1.7411648E1,3.899131E1,1.109874E2,1.2435594E1,6.7457016E1,3.7054337E1,3.0742247E1,8.020413E1,9.603425E0,3.9529052E0,4.6995E0,5.132587E0,1.2279061E1,3.3743572E1,5.247737E0,9.381052E1,1.717688E1,2.6712841E1,4.074418E1,1.4397009E1,2.265733E1,2.836278E1,2.379469E0,7.3155785E1,7.0483494E0,3.925528E0,5.6778965E0,2.3171067E0,1.6357986E0,3.5489812E0,1.150519E0,3.2210376E0,1.9115492E0,1.0967599E1,2.2775974E1,3.3866708E0,1.8610663E0,1.94535E1,7.435702E1,1.3656441E1,3.5204391E0,2.4132353E1,2.5804887E0,1.4120816E1,2.6623362E1],"tree_param":{"num_deleted":"0","num_feature":"40","num_nodes":"55","size_leaf_vector":"1"}},{"base_weights":[-1.4411376E-2,-4.4051284E-1,4.3490517E-1,1.5826814E-2,-7.216733E-1,1.4902437E-1,6.694663E-2,-2.3660284E-1,6.520606E-1,-9.068207E-1,-5.184558E-2,5.634784E-1,-3.9076978E-1,-5.4633987E-1,1.8759887E-1,-1.3199899E-1,7.5466104E-2,-1.0475669E0,-3.858603E-1,4.677617E-1,-7.401334E-1,2.01409E-1,1.0801219E0,-6.833773E-1,4.422594E-1,6.6966987E-3,-3.940424E-2,3.444523E-2,-2.9416824E-2,4.0382285E-2,-6.423363E-2,-5.997582E-2,-3.7782505E-2,-4.682584E-2,8.2328655E-2,5.729062E-2,-5.7703294E-3,5.7817216E-4,-5.1367253E-2,3.6365077E-2,-1.5945215E-2,6.13724E-2,8.346628E-3,-4.8910648E-2,2.9897892E-3,-5.902052E-2,3.704048E-2],"categories":[],"categories_nodes":[],"categories_segments":[],"categories_sizes":[],"default_left":[0,0,0,0,0,0,0,0,0,0,0,0,0,0,0,0,0,0,0,0,0,0,0,0,0,0,0,0,0,0,0,0,0,0,0,0,0,0,0,0,0,0,0,0,0,0,0],"id":17,"left_children":[1,3,5,7,9,11,-1,13,15,17,19,21,23,25,27,29,-1,31,33,35,37,39,41,43,45,-1,-1,-1,-1,-1,-1,-1,-1,-1,-1,-1,-1,-1,-1,-1,-1,-1,-1,-1,-1,-1,-1],"loss_changes":[7.8961685E1,2.7169308E1,5.0255623E1,1.3271369E1,1.6198418E1,3.4364697E1,0E0,7.8818045E0,1.544965E1,7.1162567E0,1.0870722E1,1.6008812E1,1.6603767E1,5.4067535E0,1.000442E1,1.4543099E1,0E0,2.3055344E0,2.6457754E1,6.758847E0,2.639264E0,1.3986894E1,3.8511734E0,1.0294645E1,9.041653E0,0E0,0E0,0E0,0E0,0E0,0E0,0E0,0E0,0E0,0E0,0E0,0E0,0E0,0E0,0E0,0E0,0E0,0E0,0E0,0E0,0E0,0E0],"parents":[2147483647,0,0,1,1,2,2,3,3,4,4,5,5,7,7,8,8,9,9,10,10,11,11,12,12,13,13,14,14,15,15,17,17,18,18,19,19,20,20,21,21,22,22,23,23,24,24],"right_children":[2,4,6,8,10,12,-1,14,16,18,20,22,24,26,28,30,-1,32,34,36,38,40,42,44,46,-1,-1,-1,-1,-1,-1,-1,-1,-1,-1,-1,-1,-1,-1,-1,-1,-1,-1,-1,-1,-1,-1],"split_conditions":[1.0173256E0,6.487775E-1,9.942911E-1,1.4981929E0,1.6071422E0,1.7390625E-1,6.694663E-2,3.7690844E-2,5.3394866E-1,1.4981929E0,-1.5392838E-1,1.4981929E0,2.2220883E0,5.5422825E-1,-1.3008393E-1,-6.12107E-1,7.5466104E-2,1.2663833E0,5.3394866E-1,-4.2937693E-1,-4.4640028E-1,-4.2937693E-1,6.850105E-2,1.4981929E0,-1.7266591E-1,6.6966987E-3,-3.940424E-2,3.444523E-2,-2.9416824E-2,4.0382285E-2,-6.423363E-2,-5.997582E-2,-3.7782505E-2,-4.682584E-2,8.2328655E-2,5.729062E-2,-5.7703294E-3,5.7817216E-4,-5.1367253E-2,3.6365077E-2,-1.5945215E-2,6.13724E-2,8.346628E-3,-4.8910648E-2,2.9897892E-3,-5.902052E-2,3.704048E-2],"split_indices":[39,4,38,23,34,5,0,1,24,23,0,23,28,13,20,7,0,29,24,20,18,20,0,23,7,0,0,0,0,0,0,0,0,0,0,0,0,0,0,0,0,0,0,0,0,0,0],"split_type":[0,0,0,0,0,0,0,0,0,0,0,0,0,0,0,0,0,0,0,0,0,0,0,0,0,0,0,0,0,0,0,0,0,0,0,0,0,0,0,0,0,0,0,0,0,0,0],"sum_hessian":[4.1043002E2,2.1066713E2,1.997629E2,8.067335E1,1.2999377E2,1.516217E2,4.8141182E1,5.8207348E1,2.2466002E1,1.0156605E2,2.8427732E1,8.574376E1,6.5877945E1,3.3476254E1,2.4731094E1,1.1978667E1,1.0487334E1,7.916694E1,2.2399107E1,1.638138E1,1.2046352E1,5.123062E1,3.4513138E1,4.8886024E1,1.6991922E1,8.505486E0,2.4970768E1,1.5164394E1,9.566701E0,6.7484627E0,5.2302046E0,5.361996E1,2.554698E1,1.811488E1,4.284228E0,7.251015E0,9.130364E0,3.418796E0,8.627557E0,2.5472137E1,2.5758484E1,3.0110317E1,4.402821E0,3.539878E1,1.3487245E1,2.1026826E0,1.4889239E1],"tree_param":{"num_deleted":"0","num_feature":"40","num_nodes":"47","size_leaf_vector":"1"}},{"base_weights":[-1.0169977E-3,3.3946526E-1,-4.8301703E-1,5.256205E-1,-5.9613246E-1,-7.0072776E-1,1.457232E-1,8.53127E-1,1.04664624E-1,1.95301E-1,-8.252745E-1,-3.8128186E-2,-8.2952183E-1,-4.4624478E-1,8.029791E-2,9.8960364E-1,4.8545472E-2,6.595036E-1,-3.138849E-1,5.606932E-1,-5.2043673E-2,-1.1851511E0,-1.3030384E-1,6.445479E-2,-4.593974E-1,-9.676262E-1,-2.0849295E-1,3.8568175E-1,-9.980246E-1,3.621098E-2,6.709544E-2,-4.9830932E-2,2.1847546E-2,-2.262059E-2,4.4934634E-2,1.4814496E-2,-2.9364673E-2,6.0977187E-2,-7.1280184E-3,-1.02830315E-2,-6.614889E-2,-3.64993E-2,3.5319697E-2,-4.6778318E-2,2.6199585E-2,-3.640137E-2,-5.8124535E-2,-2.4309047E-2,5.8727924E-2,3.4500457E-2,-3.006409E-2,-2.3714644E-3,-5.6983206E-2],"categories":[],"categories_nodes":[],"categories_segments":[],"categories_sizes":[],"default_left":[0,0,0,0,0,0,0,0,0,0,0,0,0,0,0,0,0,0,0,0,0,0,0,0,0,0,0,0,0,0,0,0,0,0,0,0,0,0,0,0,0,0,0,0,0,0,0,0,0,0,0,0,0],"id":18,"left_children":[1,3,5,7,9,11,13,15,17,19,21,23,25,27,-1,29,31,33,35,37,-1,39,41,-1,43,45,47,49,51,-1,-1,-1,-1,-1,-1,-1,-1,-1,-1,-1,-1,-1,-1,-1,-1,-1,-1,-1,-1,-1,-1,-1,-1],"loss_changes":[6.631161E1,4.1555008E1,2.2998383E1,2.7212257E1,7.3725348E0,1.0586098E1,3.7829517E1,1.2166573E1,2.0594788E1,4.9015446E0,7.6057854E0,1.2272491E1,8.728462E0,1.4979202E1,0E0,7.739914E0,7.1270194E0,9.7354965E0,8.216085E0,3.7920682E0,0E0,1.9983253E0,6.1477046E0,0E0,7.987186E0,2.907486E0,7.941521E0,4.2099977E0,2.1689987E0,0E0,0E0,0E0,0E0,0E0,0E0,0E0,0E0,0E0,0E0,0E0,0E0,0E0,0E0,0E0,0E0,0E0,0E0,0E0,0E0,0E0,0E0,0E0,0E0],"parents":[2147483647,0,0,1,1,2,2,3,3,4,4,5,5,6,6,7,7,8,8,9,9,10,10,11,11,12,12,13,13,15,15,16,16,17,17,18,18,19,19,21,21,22,22,24,24,25,25,26,26,27,27,28,28],"right_children":[2,4,6,8,10,12,14,16,18,20,22,24,26,28,-1,30,32,34,36,38,-1,40,42,-1,44,46,48,50,52,-1,-1,-1,-1,-1,-1,-1,-1,-1,-1,-1,-1,-1,-1,-1,-1,-1,-1,-1,-1,-1,-1,-1,-1],"split_conditions":[5.5422825E-1,1.422001E0,1.4981929E0,-1.5392838E-1,-6.374315E-1,-7.658878E-1,5.3394866E-1,1.4225379E0,5.5615854E-1,-2.651431E-1,1.6581775E0,-1.5185386E0,2.2220883E0,-6.5732276E-1,8.029791E-2,1.4981929E0,-8.7334716E-1,5.3394866E-1,-4.1216835E-1,5.5615854E-1,-5.2043673E-2,-5.035447E-1,1.2663833E0,6.445479E-2,8.1858057E-1,4.9193883E-1,6.4218295E-1,1.422001E0,-4.4640028E-1,3.621098E-2,6.709544E-2,-4.9830932E-2,2.1847546E-2,-2.262059E-2,4.4934634E-2,1.4814496E-2,-2.9364673E-2,6.0977187E-2,-7.1280184E-3,-1.02830315E-2,-6.614889E-2,-3.64993E-2,3.5319697E-2,-4.6778318E-2,2.6199585E-2,-3.640137E-2,-5.8124535E-2,-2.4309047E-2,5.8727924E-2,3.4500457E-2,-3.006409E-2,-2.3714644E-3,-5.6983206E-2],"split_indices":[13,6,23,0,14,7,24,3,16,0,36,8,28,7,0,23,1,24,7,16,0,14,29,0,1,3,25,6,18,0,0,0,0,0,0,0,0,0,0,0,0,0,0,0,0,0,0,0,0,0,0,0,0],"split_type":[0,0,0,0,0,0,0,0,0,0,0,0,0,0,0,0,0,0,0,0,0,0,0,0,0,0,0,0,0,0,0,0,0,0,0,0,0,0,0,0,0,0,0,0,0,0,0,0,0,0,0,0,0],"sum_hessian":[4.0206287E2,2.3579457E2,1.6626831E2,1.9702986E2,3.8764706E1,1.2341836E2,4.2849957E1,1.1023762E2,8.6792244E1,8.736704E0,3.0028E1,2.029644E1,1.0312192E2,3.0793034E1,1.2056921E1,9.405383E1,1.6183784E1,3.7072456E1,4.971979E1,7.133635E0,1.6030688E0,1.9318815E1,1.0709186E1,4.469018E0,1.5827421E1,8.390502E1,1.9216892E1,1.239936E1,1.8393675E1,5.249046E1,4.1563374E1,3.949434E0,1.2234351E1,6.0516887E0,3.1020767E1,1.5016227E1,3.4703564E1,3.367743E0,3.7658918E0,2.2805092E0,1.7038305E1,6.332648E0,4.3765383E0,1.0797372E1,5.03005E0,3.615993E1,4.7745094E1,1.659201E1,2.6248837E0,9.7832155E0,2.616144E0,2.221268E0,1.6172407E1],"tree_param":{"num_deleted":"0","num_feature":"40","num_nodes":"53","size_leaf_vector":"1"}},{"base_weights":[-8.62878E-4,4.4086966E-1,-3.498175E-1,6.257785E-1,-6.3373286E-1,-1.577442E-1,-9.2975885E-1,7.413251E-1,-3.835288E-1,2.264277E-1,-1.0427563E0,2.7867776E-1,-5.3556097E-1,-9.992648E-1,-3.1271258E-1,7.95816E-1,-5.1568467E-2,2.1794681E-1,-8.135531E-1,5.586855E-1,-3.0199608E-2,-3.7336916E-1,-6.577823E-2,-1.4430313E-1,6.8275285E-1,-9.361682E-1,-5.809168E-2,-1.1057599E0,-5.438974E-1,-7.1612155E-1,3.6358636E-2,1.2789902E-2,4.7636498E-2,4.4104263E-2,-3.5087354E-2,-6.568181E-2,1.1059741E-2,4.69723E-2,-2.0140186E-2,1.3290023E-2,-4.4531133E-2,2.9336909E-2,-2.8431423E-2,7.8707875E-5,7.095151E-2,-6.327969E-2,-3.53016E-2,2.4094323E-2,-3.367402E-2,-5.8540273E-2,1.1473496E-2,2.7524984E-2,-3.96581E-2,6.360126E-5,-4.5212388E-2],"categories":[],"categories_nodes":[],"categories_segments":[],"categories_sizes":[],"default_left":[0,0,0,0,0,0,0,0,0,0,0,0,0,0,0,0,0,0,0,0,0,0,0,0,0,0,0,0,0,0,0,0,0,0,0,0,0,0,0,0,0,0,0,0,0,0,0,0,0,0,0,0,0,0,0],"id":19,"left_children":[1,3,5,7,9,11,13,15,17,19,21,23,25,27,29,31,-1,33,35,37,-1,39,-1,41,43,45,47,49,51,53,-1,-1,-1,-1,-1,-1,-1,-1,-1,-1,-1,-1,-1,-1,-1,-1,-1,-1,-1,-1,-1,-1,-1,-1,-1],"loss_changes":[6.0872692E1,3.502767E1,2.4428545E1,1.7684494E1,9.4130125E0,2.7674864E1,2.0328636E0,1.3629379E1,4.3118777E0,2.8426058E0,2.4852066E0,1.3450135E1,1.712574E1,1.7599335E0,3.4057624E0,9.67424E0,0E0,4.972224E0,4.951859E0,2.8175347E0,0E0,2.208389E0,0E0,1.1937219E1,1.9399431E1,2.7685661E0,1.3770171E1,2.4715767E0,3.2666297E0,6.789844E-1,0E0,0E0,0E0,0E0,0E0,0E0,0E0,0E0,0E0,0E0,0E0,0E0,0E0,0E0,0E0,0E0,0E0,0E0,0E0,0E0,0E0,0E0,0E0,0E0,0E0],"parents":[2147483647,0,0,1,1,2,2,3,3,4,4,5,5,6,6,7,7,8,8,9,9,10,10,11,11,12,12,13,13,14,14,15,15,17,17,18,18,19,19,21,21,23,23,24,24,25,25,26,26,27,27,28,28,29,29],"right_children":[2,4,6,8,10,12,14,16,18,20,22,24,26,28,30,32,-1,34,36,38,-1,40,-1,42,44,46,48,50,52,54,-1,-1,-1,-1,-1,-1,-1,-1,-1,-1,-1,-1,-1,-1,-1,-1,-1,-1,-1,-1,-1,-1,-1,-1,-1],"split_conditions":[6.487775E-1,1.4225379E0,1.422001E0,1.366381E0,-4.2937693E-1,1.7390625E-1,1.9243608E0,2.1389062E0,-2.9373115E-1,1.4248421E0,5.5615854E-1,1.020243E0,1.6581775E0,8.666275E-1,6.8375874E-1,6.525721E-1,-5.1568467E-2,3.8367292E-1,1.2702061E0,1.422001E0,-3.0199608E-2,-2.651431E-1,-6.577823E-2,-4.4640028E-1,6.525721E-1,6.525721E-1,3.8367292E-1,2.2927954E0,-7.503449E-1,-7.2866994E-1,3.6358636E-2,1.2789902E-2,4.7636498E-2,4.4104263E-2,-3.5087354E-2,-6.568181E-2,1.1059741E-2,4.69723E-2,-2.0140186E-2,1.3290023E-2,-4.4531133E-2,2.9336909E-2,-2.8431423E-2,7.8707875E-5,7.095151E-2,-6.327969E-2,-3.53016E-2,2.4094323E-2,-3.367402E-2,-5.8540273E-2,1.1473496E-2,2.7524984E-2,-3.96581E-2,6.360126E-5,-4.5212388E-2],"split_indices":[4,3,6,20,20,5,16,5,8,12,16,32,36,8,19,33,0,15,8,6,0,0,0,18,33,33,15,0,7,20,0,0,0,0,0,0,0,0,0,0,0,0,0,0,0,0,0,0,0,0,0,0,0,0,0],"split_type":[0,0,0,0,0,0,0,0,0,0,0,0,0,0,0,0,0,0,0,0,0,0,0,0,0,0,0,0,0,0,0,0,0,0,0,0,0,0,0,0,0,0,0,0,0,0,0,0,0,0,0,0,0,0,0],"sum_hessian":[3.9290588E2,1.7328523E2,2.1962064E2,1.4820157E2,2.5083656E1,1.6593567E2,5.3684963E1,1.3321634E2,1.4985233E1,8.227649E0,1.6856009E1,7.711795E1,8.8817726E1,4.7693226E1,5.9917364E0,1.297309E2,3.4854507E0,6.452828E0,8.532405E0,6.079624E0,2.1480246E0,5.237496E0,1.1618512E1,3.7991642E1,3.9126305E1,4.777378E1,4.1043945E1,3.749591E1,1.0197314E1,4.5180693E0,1.4736673E0,2.6961332E1,1.02769554E2,3.7902586E0,2.6625693E0,5.6667633E0,2.8656416E0,4.4274745E0,1.6521498E0,2.521797E0,2.7156992E0,1.3719774E1,2.427187E1,2.0476479E1,1.8649826E1,1.9350159E1,2.8423624E1,2.1936773E1,1.910717E1,3.6449852E1,1.0460607E0,1.5813078E0,8.616006E0,1.0619879E0,3.4560814E0],"tree_param":{"num_deleted":"0","num_feature":"40","num_nodes":"55","size_leaf_vector":"1"}},{"base_weights":[9.104433E-4,-2.673152E-1,6.2789816E-1,1.7491822E-1,-5.786207E-1,-6.205458E-2,7.133197E-2,-6.438184E-1,4.757418E-1,-7.813438E-1,8.785337E-2,4.789733E-1,-4.98106E-1,-1.4324437E-1,-1.0065929E0,1.5649213E-2,6.972064E-2,-5.085741E-1,-1.0312921E0,4.904254E-1,-4.886822E-1,7.424623E-1,-4.0596166E-1,-8.349847E-1,9.199832E-2,3.478314E-2,-2.7157318E-2,-1.3061383E-2,-6.3926004E-2,-2.0019714E-2,2.8569475E-2,-4.0970065E-2,-2.7864387E-3,-5.692413E-2,2.6785573E-3,5.1164262E-2,3.4729603E-3,7.1120756E-3,-5.077019E-2,4.2677827E-2,-1.9612525E-2,4.9038928E-2,-4.8134763E-2,-5.9232727E-2,-1.588321E-3,2.4300432E-2,-4.8451457E-2],"categories":[],"categories_nodes":[],"categories_segments":[],"categories_sizes":[],"default_left":[0,0,0,0,0,0,0,0,0,0,0,0,0,0,0,0,0,0,0,0,0,0,0,0,0,0,0,0,0,0,0,0,0,0,0,0,0,0,0,0,0,0,0,0,0,0,0],"id":20,"left_children":[1,3,5,7,9,11,-1,13,15,17,19,21,23,25,27,29,-1,31,33,35,37,39,41,43,45,-1,-1,-1,-1,-1,-1,-1,-1,-1,-1,-1,-1,-1,-1,-1,-1,-1,-1,-1,-1,-1,-1],"loss_changes":[6.591566E1,3.7893547E1,6.2647266E1,2.842745E1,2.186697E1,1.5095405E1,0E0,5.5041494E0,3.4506996E1,7.9166718E0,9.181861E0,6.9734325E0,7.106305E0,4.946511E0,3.0037575E0,1.2800516E1,0E0,8.161908E0,5.9859924E0,4.9614863E0,5.3524356E0,2.72585E0,6.2261186E0,5.916644E0,5.974236E0,0E0,0E0,0E0,0E0,0E0,0E0,0E0,0E0,0E0,0E0,0E0,0E0,0E0,0E0,0E0,0E0,0E0,0E0,0E0,0E0,0E0,0E0],"parents":[2147483647,0,0,1,1,2,2,3,3,4,4,5,5,7,7,8,8,9,9,10,10,11,11,12,12,13,13,14,14,15,15,17,17,18,18,19,19,20,20,21,21,22,22,23,23,24,24],"right_children":[2,4,6,8,10,12,-1,14,16,18,20,22,24,26,28,30,-1,32,34,36,38,40,42,44,46,-1,-1,-1,-1,-1,-1,-1,-1,-1,-1,-1,-1,-1,-1,-1,-1,-1,-1,-1,-1,-1,-1],"split_conditions":[1.4981929E0,6.487775E-1,5.3394866E-1,6.525721E-1,1.6071422E0,-2.651431E-1,7.133197E-2,4.9193883E-1,1.020243E0,3.8367292E-1,-1.5392838E-1,1.4225379E0,1.1812826E0,-6.9228524E-1,-5.9878725E-1,1.1812826E0,6.972064E-2,1.1812826E0,1.5574111E0,-4.2937693E-1,-5.1128083E-1,1.1975957E0,-7.713183E-1,1.7749634E0,1.366381E0,3.478314E-2,-2.7157318E-2,-1.3061383E-2,-6.3926004E-2,-2.0019714E-2,2.8569475E-2,-4.0970065E-2,-2.7864387E-3,-5.692413E-2,2.6785573E-3,5.1164262E-2,3.4729603E-3,7.1120756E-3,-5.077019E-2,4.2677827E-2,-1.9612525E-2,4.9038928E-2,-4.8134763E-2,-5.9232727E-2,-1.588321E-3,2.4300432E-2,-4.8451457E-2],"split_indices":[23,4,24,33,34,0,0,3,32,15,0,3,26,4,0,26,0,26,8,20,8,8,14,37,20,0,0,0,0,0,0,0,0,0,0,0,0,0,0,0,0,0,0,0,0,0,0],"split_type":[0,0,0,0,0,0,0,0,0,0,0,0,0,0,0,0,0,0,0,0,0,0,0,0,0,0,0,0,0,0,0,0,0,0,0,0,0,0,0,0,0,0,0,0,0,0,0],"sum_hessian":[3.8995062E2,2.735146E2,1.1643603E2,1.13176605E2,1.6033798E2,6.1975067E1,5.4460964E1,3.0103962E1,8.307265E1,1.2281015E2,3.7527836E1,2.7614334E1,3.4360733E1,1.3235639E1,1.6868324E1,5.5489365E1,2.758328E1,6.017528E1,6.263487E1,2.2185757E1,1.5342079E1,2.140269E1,6.211643E0,2.1609388E1,1.2751346E1,4.0025587E0,9.23308E0,4.6967473E0,1.21715765E1,3.1875616E1,2.3613749E1,3.597796E1,2.419732E1,5.8004963E1,4.629905E0,9.386869E0,1.2798887E1,7.1814456E0,8.160634E0,1.9973776E1,1.4289143E0,1.5325617E0,4.6790814E0,1.5035926E1,6.573463E0,9.7101345E0,3.041211E0],"tree_param":{"num_deleted":"0","num_feature":"40","num_nodes":"47","size_leaf_vector":"1"}},{"base_weights":[-1.3043595E-2,-3.3078957E-1,5.002803E-1,9.229854E-2,-6.228922E-1,9.235424E-1,1.9070476E-2,6.311504E-1,-3.037994E-1,-8.4526595E-3,-7.44374E-1,9.766077E-1,-3.6533996E-2,-7.262585E-1,6.327529E-1,8.4672284E-1,-5.5521977E-1,3.546069E-1,-6.909129E-1,4.0029147E-1,-6.8207484E-1,-7.7500415E-1,4.6976858E-1,1.0738022E0,2.9170388E-1,4.7809765E-2,-8.840554E-1,-4.5771345E-2,7.4713343E-1,4.9125075E-2,-1.257091E-2,3.342815E-2,-4.8954714E-2,2.8201908E-2,-2.9529268E-2,-4.339485E-2,2.0481884E-2,4.873769E-2,3.1600627E-3,-4.999178E-2,3.2565437E-2,-3.0552113E-2,-5.5074144E-2,5.6660812E-2,-2.3871338E-2,5.839814E-2,8.826471E-3,4.3691132E-2,-2.8386706E-2,-5.0413683E-2,-3.219762E-3,4.6545286E-2,-3.590002E-3],"categories":[],"categories_nodes":[],"categories_segments":[],"categories_sizes":[],"default_left":[0,0,0,0,0,0,0,0,0,0,0,0,0,0,0,0,0,0,0,0,0,0,0,0,0,0,0,0,0,0,0,0,0,0,0,0,0,0,0,0,0,0,0,0,0,0,0,0,0,0,0,0,0],"id":21,"left_children":[1,3,5,7,9,11,13,15,17,19,21,23,-1,25,27,29,31,33,35,37,39,41,43,45,47,-1,49,-1,51,-1,-1,-1,-1,-1,-1,-1,-1,-1,-1,-1,-1,-1,-1,-1,-1,-1,-1,-1,-1,-1,-1,-1,-1],"loss_changes":[6.2205093E1,2.9166609E1,2.9683384E1,2.0910442E1,1.0404034E1,7.452652E0,3.213941E1,1.1070856E1,1.467655E1,6.8905425E0,4.694168E0,4.716385E0,0E0,9.167109E0,7.417035E0,4.792948E0,4.058465E0,4.3389654E0,6.667574E0,2.8738406E0,4.359936E0,5.464836E0,2.622884E0,4.088684E0,5.646764E0,0E0,2.4903908E0,0E0,5.014717E0,0E0,0E0,0E0,0E0,0E0,0E0,0E0,0E0,0E0,0E0,0E0,0E0,0E0,0E0,0E0,0E0,0E0,0E0,0E0,0E0,0E0,0E0,0E0,0E0],"parents":[2147483647,0,0,1,1,2,2,3,3,4,4,5,5,6,6,7,7,8,8,9,9,10,10,11,11,13,13,14,14,15,15,16,16,17,17,18,18,19,19,20,20,21,21,22,22,23,23,24,24,26,26,28,28],"right_children":[2,4,6,8,10,12,14,16,18,20,22,24,-1,26,28,30,32,34,36,38,40,42,44,46,48,-1,50,-1,52,-1,-1,-1,-1,-1,-1,-1,-1,-1,-1,-1,-1,-1,-1,-1,-1,-1,-1,-1,-1,-1,-1,-1,-1],"split_conditions":[1.9336085E-1,6.487775E-1,1.7390625E-1,5.5615854E-1,-6.816776E-1,1.9898403E0,1.6581775E0,1.422001E0,2.942104E-1,-2.651431E-1,3.995888E0,1.422001E0,-3.6533996E-2,1.5753499E0,-2.7039796E-1,1.4225379E0,-7.413959E-1,1.4225379E0,2.3050494E0,5.5615854E-1,2.3050494E0,1.0670881E0,1.106329E0,2.7969005E0,-4.8757252E-1,4.7809765E-2,2.9203775E0,-4.5771345E-2,1.422001E0,4.9125075E-2,-1.257091E-2,3.342815E-2,-4.8954714E-2,2.8201908E-2,-2.9529268E-2,-4.339485E-2,2.0481884E-2,4.873769E-2,3.1600627E-3,-4.999178E-2,3.2565437E-2,-3.0552113E-2,-5.5074144E-2,5.6660812E-2,-2.3871338E-2,5.839814E-2,8.826471E-3,4.3691132E-2,-2.8386706E-2,-5.0413683E-2,-3.219762E-3,4.6545286E-2,-3.590002E-3],"split_indices":[21,4,5,16,17,4,36,6,2,0,19,6,0,10,7,3,7,3,31,16,31,20,7,21,0,0,7,0,6,0,0,0,0,0,0,0,0,0,0,0,0,0,0,0,0,0,0,0,0,0,0,0,0],"split_type":[0,0,0,0,0,0,0,0,0,0,0,0,0,0,0,0,0,0,0,0,0,0,0,0,0,0,0,0,0,0,0,0,0,0,0,0,0,0,0,0,0,0,0,0,0,0,0,0,0,0,0,0,0],"sum_hessian":[3.7936234E2,2.3453899E2,1.4482335E2,9.607123E1,1.3846776E2,7.65619E1,6.826145E1,4.0449833E1,5.56214E1,2.303405E1,1.154337E2,7.45551E1,2.0067973E0,3.0741667E1,3.7519783E1,3.4472256E1,5.977579E0,2.0625437E1,3.4995964E1,1.45880165E1,8.4460335E0,1.12946014E2,2.4876926E0,6.479258E1,9.762521E0,2.2335317E0,2.8508135E1,2.1316545E0,3.538813E1,3.1235735E1,3.236519E0,1.344551E0,4.633028E0,1.7340746E1,3.2846894E0,3.0700207E1,4.295755E0,4.8252964E0,9.76272E0,7.096843E0,1.3491902E0,7.367277E1,3.927324E1,1.3668312E0,1.1208613E0,5.9721474E1,5.071107E0,5.851742E0,3.9107788E0,2.508227E1,3.4258654E0,2.9306423E1,6.081707E0],"tree_param":{"num_deleted":"0","num_feature":"40","num_nodes":"53","size_leaf_vector":"1"}},{"base_weights":[-1.1487634E-2,-3.1581804E-1,4.8034036E-1,-5.57027E-1,3.0306992E-1,6.4841434E-2,2.2206183E-1,-7.39134E-1,-1.2681851E-2,5.5921364E-1,-7.3416185E-1,7.144192E-1,-2.9524735E-1,-1.0526172E0,-3.651938E-1,-2.348483E-1,6.499206E-2,9.164718E-1,1.4562464E-1,1.4125188E-1,-9.915273E-1,1.0354575E0,3.7010828E-1,-8.214374E-1,2.9444432E-1,-5.9172347E-2,-2.2450887E-2,-3.2864574E-2,6.6449314E-2,-2.6504062E-2,6.3383214E-2,2.9749172E-2,6.359649E-2,-2.2020277E-2,2.777462E-2,-2.3227733E-2,3.47054E-2,-2.5681624E-2,-5.728629E-2,6.0158692E-2,1.4398166E-3,-7.04635E-3,3.166884E-2,8.052136E-3,-4.7775883E-2,-1.1959305E-2,4.7594216E-2],"categories":[],"categories_nodes":[],"categories_segments":[],"categories_sizes":[],"default_left":[0,0,0,0,0,0,0,0,0,0,0,0,0,0,0,0,0,0,0,0,0,0,0,0,0,0,0,0,0,0,0,0,0,0,0,0,0,0,0,0,0,0,0,0,0,0,0],"id":22,"left_children":[1,3,5,7,9,-1,11,13,15,17,19,21,23,25,27,29,-1,31,33,35,37,39,41,43,45,-1,-1,-1,-1,-1,-1,-1,-1,-1,-1,-1,-1,-1,-1,-1,-1,-1,-1,-1,-1,-1,-1],"loss_changes":[5.649664E1,3.4973747E1,2.9243397E1,1.6655895E1,1.795426E1,0E0,2.823523E1,1.4380638E1,1.2652577E1,7.7750454E0,3.1838188E0,5.8804665E0,1.7109888E1,4.0123825E0,2.838844E1,1.653728E1,0E0,2.4186554E0,6.2360973E0,1.5822641E0,1.1729717E-1,4.175415E0,3.7801902E0,3.4490986E0,9.145415E0,0E0,0E0,0E0,0E0,0E0,0E0,0E0,0E0,0E0,0E0,0E0,0E0,0E0,0E0,0E0,0E0,0E0,0E0,0E0,0E0,0E0,0E0],"parents":[2147483647,0,0,1,1,2,2,3,3,4,4,6,6,7,7,8,8,9,9,10,10,11,11,12,12,13,13,14,14,15,15,17,17,18,18,19,19,20,20,21,21,22,22,23,23,24,24],"right_children":[2,4,6,8,10,-1,12,14,16,18,20,22,24,26,28,30,-1,32,34,36,38,40,42,44,46,-1,-1,-1,-1,-1,-1,-1,-1,-1,-1,-1,-1,-1,-1,-1,-1,-1,-1,-1,-1,-1,-1],"split_conditions":[1.9336085E-1,1.4981929E0,1.5753499E0,1.6071422E0,1.422001E0,6.4841434E-2,1.7390625E-1,1.1812826E0,1.6724538E0,1.7390625E-1,-4.3866023E-1,6.487775E-1,1.6581775E0,2.3050494E0,6.4218295E-1,1.1812826E0,6.499206E-2,1.1812826E0,1.1812826E0,2.6977642E-2,-1.6691972E-1,1.0238093E0,-6.175227E-1,-7.335646E-1,1.6783912E-1,-5.9172347E-2,-2.2450887E-2,-3.2864574E-2,6.6449314E-2,-2.6504062E-2,6.3383214E-2,2.9749172E-2,6.359649E-2,-2.2020277E-2,2.777462E-2,-2.3227733E-2,3.47054E-2,-2.5681624E-2,-5.728629E-2,6.0158692E-2,1.4398166E-3,-7.04635E-3,3.166884E-2,8.052136E-3,-4.7775883E-2,-1.1959305E-2,4.7594216E-2],"split_indices":[21,23,10,34,6,0,5,26,35,5,3,4,36,31,25,26,0,26,26,22,17,8,8,2,1,0,0,0,0,0,0,0,0,0,0,0,0,0,0,0,0,0,0,0,0,0,0],"split_type":[0,0,0,0,0,0,0,0,0,0,0,0,0,0,0,0,0,0,0,0,0,0,0,0,0,0,0,0,0,0,0,0,0,0,0,0,0,0,0,0,0,0,0,0,0,0,0],"sum_hessian":[3.754405E2,2.3214998E2,1.4329053E2,1.6711687E2,6.503311E1,3.4262287E1,1.0902824E2,1.24955864E2,4.2160995E1,5.252336E1,1.2509752E1,5.56661E1,5.3362137E1,6.698541E1,5.7970448E1,3.6657017E1,5.503982E0,2.752842E1,2.4994944E1,2.9446974E0,9.565055E0,2.7767824E1,2.7898275E1,2.7991732E1,2.5370405E1,5.6116817E1,1.0868597E1,5.0173717E1,7.796732E0,3.127155E1,5.3854656E0,1.5124207E1,1.2404213E1,1.0183848E1,1.4811094E1,1.4721248E0,1.4725727E0,3.0746632E0,6.4903917E0,2.4117392E1,3.6504328E0,9.380843E0,1.8517433E1,2.9314578E0,2.5060272E1,1.4230954E1,1.1139451E1],"tree_param":{"num_deleted":"0","num_feature":"40","num_nodes":"47","size_leaf_vector":"1"}},{"base_weights":[-6.0056604E-4,4.1696158E-1,-3.2701656E-1,5.93368E-1,-6.3150704E-1,-5.0367105E-1,2.2950444E-1,8.5859305E-1,6.502939E-2,2.4156217E-1,-9.5262164E-1,-8.17405E-1,-1.5854749E-1,5.777739E-1,-4.2300874E-1,9.730022E-1,1.528105E-1,2.3556218E-1,-1.0244235E0,6.436108E-1,-3.5665102E-2,-5.931929E-2,-2.2825706E-1,-9.728295E-1,-4.0050656E-1,-4.4820502E-1,6.66341E-2,7.7125525E-1,-6.178115E-1,6.0703206E-1,-6.282535E-1,5.3412613E-2,1.4289128E-2,6.148064E-2,-2.8002895E-2,-2.5072584E-2,2.4378663E-2,-5.721688E-2,-1.2101317E-2,-1.1252469E-2,4.9038995E-2,2.6850238E-2,-3.373666E-2,-2.0413289E-2,-5.5247232E-2,-5.190968E-2,-4.7647743E-3,-5.8857417E-3,-3.7829466E-2,-1.6128361E-2,4.9659215E-2,8.689493E-3,-4.6958506E-2,-5.5356165E-3,5.0010134E-2,-4.229187E-2,4.2721912E-2],"categories":[],"categories_nodes":[],"categories_segments":[],"categories_sizes":[],"default_left":[0,0,0,0,0,0,0,0,0,0,0,0,0,0,0,0,0,0,0,0,0,0,0,0,0,0,0,0,0,0,0,0,0,0,0,0,0,0,0,0,0,0,0,0,0,0,0,0,0,0,0,0,0,0,0,0,0],"id":23,"left_children":[1,3,5,7,9,11,13,15,17,19,21,23,25,27,29,31,33,35,37,39,-1,-1,41,43,45,47,-1,49,51,53,55,-1,-1,-1,-1,-1,-1,-1,-1,-1,-1,-1,-1,-1,-1,-1,-1,-1,-1,-1,-1,-1,-1,-1,-1,-1,-1],"loss_changes":[5.0925083E1,3.0694202E1,2.0731586E1,1.9679089E1,6.9847937E0,1.7139149E1,1.1882568E1,7.4160004E0,9.187285E0,3.204976E0,2.4653702E0,5.0080338E0,3.336965E1,8.298386E0,4.2711725E0,3.9007645E0,1.1214655E1,7.738217E0,2.5319576E-1,1.7616713E0,0E0,0E0,2.0765133E0,3.3918152E0,4.5213647E0,6.296893E0,0E0,6.846035E0,1.4182968E0,1.0623102E0,5.3824143E0,0E0,0E0,0E0,0E0,0E0,0E0,0E0,0E0,0E0,0E0,0E0,0E0,0E0,0E0,0E0,0E0,0E0,0E0,0E0,0E0,0E0,0E0,0E0,0E0,0E0,0E0],"parents":[2147483647,0,0,1,1,2,2,3,3,4,4,5,5,6,6,7,7,8,8,9,9,10,10,11,11,12,12,13,13,14,14,15,15,16,16,17,17,18,18,19,19,22,22,23,23,24,24,25,25,27,27,28,28,29,29,30,30],"right_children":[2,4,6,8,10,12,14,16,18,20,22,24,26,28,30,32,34,36,38,40,-1,-1,42,44,46,48,-1,50,52,54,56,-1,-1,-1,-1,-1,-1,-1,-1,-1,-1,-1,-1,-1,-1,-1,-1,-1,-1,-1,-1,-1,-1,-1,-1,-1,-1],"split_conditions":[6.487775E-1,1.4225379E0,1.6071422E0,5.5422825E-1,-7.2866994E-1,1.1812826E0,-4.271367E-2,1.3219855E0,1.366381E0,1.4248421E0,1.1812826E0,7.3224205E-1,6.4218295E-1,1.0416007E0,-8.1204367E-1,1.4248421E0,5.5615854E-1,6.525721E-1,1.4030776E0,-5.1128083E-1,-3.5665102E-2,-5.931929E-2,-4.8757252E-1,-4.7615665E-1,6.525721E-1,4.9193883E-1,6.66341E-2,-8.7334716E-1,-8.4351546E-1,3.8367292E-1,1.6724538E0,5.3412613E-2,1.4289128E-2,6.148064E-2,-2.8002895E-2,-2.5072584E-2,2.4378663E-2,-5.721688E-2,-1.2101317E-2,-1.1252469E-2,4.9038995E-2,2.6850238E-2,-3.373666E-2,-2.0413289E-2,-5.5247232E-2,-5.190968E-2,-4.7647743E-3,-5.8857417E-3,-3.7829466E-2,-1.6128361E-2,4.9659215E-2,8.689493E-3,-4.6958506E-2,-5.5356165E-3,5.0010134E-2,-4.229187E-2,4.2721912E-2],"split_indices":[4,3,34,13,20,26,0,2,20,12,26,8,25,18,16,12,16,33,0,8,0,0,0,12,33,3,0,1,8,15,35,0,0,0,0,0,0,0,0,0,0,0,0,0,0,0,0,0,0,0,0,0,0,0,0,0,0],"split_type":[0,0,0,0,0,0,0,0,0,0,0,0,0,0,0,0,0,0,0,0,0,0,0,0,0,0,0,0,0,0,0,0,0,0,0,0,0,0,0,0,0,0,0,0,0,0,0,0,0,0,0,0,0,0,0,0,0],"sum_hessian":[3.716274E2,1.6292761E2,2.086998E2,1.3983435E2,2.3093275E1,1.5848685E2,5.0212955E1,9.26827E1,4.715164E1,6.27637E0,1.6816906E1,8.230196E1,7.618488E1,3.281367E1,1.7399284E1,7.942853E1,1.3254179E1,4.14476E1,5.704041E0,4.6200194E0,1.6563507E0,1.2544792E1,4.2721133E0,5.898003E1,2.3321932E1,6.419782E1,1.1987055E1,2.8548576E1,4.265095E0,2.565662E0,1.4833622E1,7.117524E1,8.2532835E0,5.01387E0,8.240309E0,1.0116634E1,3.1330965E1,4.6896563E0,1.0143849E0,1.3277504E0,3.292269E0,1.4804984E0,2.791615E0,1.0367111E1,4.861292E1,6.9683366E0,1.6353596E1,3.0785103E1,3.341272E1,4.4093447E0,2.4139233E1,1.308507E0,2.9565885E0,1.1252228E0,1.4404392E0,1.342122E1,1.4124016E0],"tree_param":{"num_deleted":"0","num_feature":"40","num_nodes":"57","size_leaf_vector":"1"}},{"base_weights":[1.6429159E-3,3.2562378E-1,-4.455944E-1,5.215771E-3,7.706196E-1,-5.2984774E-1,5.927881E-2,-1.2912484E-1,6.286887E-2,9.012361E-1,-2.1998884E-1,8.764577E-2,-6.582789E-1,3.2936376E-1,-5.522524E-1,1.0142485E0,2.6328412E-1,7.1838564E-1,-7.609035E-1,1.1020979E0,-1.55715E-1,-7.5904435E-1,-1.7064919E-1,1.5050656E-3,6.41023E-2,-5.4820787E-2,-1.5099268E-2,5.5748615E-2,1.2889629E-2,-3.6120486E-2,2.9839918E-2,9.108156E-3,5.0335806E-2,-5.786403E-2,-4.1967396E-5,1.1517736E-2,6.45158E-2,-3.3219017E-2,2.8573168E-2,-4.4624414E-2,-1.6321136E-2,-2.0331873E-2,5.519851E-2],"categories":[],"categories_nodes":[],"categories_segments":[],"categories_sizes":[],"default_left":[0,0,0,0,0,0,0,0,0,0,0,0,0,0,0,0,0,0,0,0,0,0,0,0,0,0,0,0,0,0,0,0,0,0,0,0,0,0,0,0,0,0,0],"id":24,"left_children":[1,3,5,7,9,11,-1,13,-1,15,17,19,21,23,25,27,29,31,33,35,37,39,41,-1,-1,-1,-1,-1,-1,-1,-1,-1,-1,-1,-1,-1,-1,-1,-1,-1,-1,-1,-1],"loss_changes":[5.3725296E1,3.0653397E1,2.173292E1,2.095987E1,1.18437195E1,1.1850487E1,0E0,2.239499E1,0E0,5.480072E0,6.276512E0,6.7102733E0,5.92482E0,1.5439913E1,7.711437E0,3.8213577E0,4.5982485E0,4.9859166E-1,2.1772227E0,4.6837616E-1,8.272687E0,4.9363747E0,6.845459E0,0E0,0E0,0E0,0E0,0E0,0E0,0E0,0E0,0E0,0E0,0E0,0E0,0E0,0E0,0E0,0E0,0E0,0E0,0E0,0E0],"parents":[2147483647,0,0,1,1,2,2,3,3,4,4,5,5,7,7,9,9,10,10,11,11,12,12,13,13,14,14,15,15,16,16,17,17,18,18,19,19,20,20,21,21,22,22],"right_children":[2,4,6,8,10,12,-1,14,-1,16,18,20,22,24,26,28,30,32,34,36,38,40,42,-1,-1,-1,-1,-1,-1,-1,-1,-1,-1,-1,-1,-1,-1,-1,-1,-1,-1,-1,-1],"split_conditions":[5.5422825E-1,1.9336085E-1,1.0173256E0,1.7749634E0,1.2459644E0,-7.675363E-1,5.927881E-2,7.211336E-3,6.286887E-2,1.3219855E0,1.7390625E-1,-1.5185386E0,2.2220883E0,-5.977986E-1,6.525721E-1,2.7969005E0,-9.6622133E-1,-4.829023E-1,1.6783912E-1,-1.6022656E0,1.9336085E-1,1.6071422E0,6.4218295E-1,1.5050656E-3,6.41023E-2,-5.4820787E-2,-1.5099268E-2,5.5748615E-2,1.2889629E-2,-3.6120486E-2,2.9839918E-2,9.108156E-3,5.0335806E-2,-5.786403E-2,-4.1967396E-5,1.1517736E-2,6.45158E-2,-3.3219017E-2,2.8573168E-2,-4.4624414E-2,-1.6321136E-2,-2.0331873E-2,5.519851E-2],"split_indices":[13,21,39,37,22,7,0,22,0,2,5,8,28,22,33,21,8,1,1,8,21,34,25,0,0,0,0,0,0,0,0,0,0,0,0,0,0,0,0,0,0,0,0],"split_type":[0,0,0,0,0,0,0,0,0,0,0,0,0,0,0,0,0,0,0,0,0,0,0,0,0,0,0,0,0,0,0,0,0,0,0,0,0,0,0,0,0,0,0],"sum_hessian":[3.6878296E2,2.140187E2,1.5476427E2,1.25015884E2,8.900282E1,1.4770097E2,7.0632887E0,1.1350099E2,1.15148945E1,7.871419E1,1.0288633E1,2.5485405E1,1.2221557E2,5.4580627E1,5.8920364E1,6.636743E1,1.2346759E1,3.642156E0,6.6464777E0,4.248176E0,2.1237228E1,1.0082429E2,2.1391281E1,4.2040627E1,1.254E1,1.8288778E1,4.0631584E1,5.966695E1,6.7004824E0,2.7759674E0,9.570791E0,1.7672606E0,1.8748953E0,4.1205826E0,2.5258949E0,1.0454428E0,3.2027333E0,1.2600234E1,8.636993E0,7.8840965E1,2.1983326E1,1.8672228E1,2.7190533E0],"tree_param":{"num_deleted":"0","num_feature":"40","num_nodes":"43","size_leaf_vector":"1"}},{"base_weights":[1.9133518E-2,-2.6676592E-1,4.734572E-1,-4.9526402E-1,3.5018456E-1,7.822052E-2,8.539862E-1,-9.4430715E-1,-2.9139295E-1,-3.3340544E-1,6.979292E-2,4.368592E-1,-5.3109735E-1,9.931176E-1,8.613411E-2,-7.8248456E-2,-1.037177E0,-1.1122333E0,-1.719434E-1,5.505438E-2,-5.411912E-1,1.9380327E-1,6.79117E-2,4.4479802E-1,-7.0511734E-1,1.0257022E0,-9.406775E-3,2.525102E-1,-4.34053E-2,3.1657226E-2,-4.7373947E-2,-5.5108245E-2,1.5194068E-2,-2.731401E-3,-6.1226707E-2,1.5896492E-2,-2.1438079E-2,-4.0493384E-2,-6.5426794E-3,3.479045E-2,-1.3252637E-2,-1.8988987E-2,5.185382E-2,-1.2273388E-2,-4.976611E-2,5.538882E-2,1.7676178E-2,2.7876746E-2,-1.3921406E-2],"categories":[],"categories_nodes":[],"categories_segments":[],"categories_sizes":[],"default_left":[0,0,0,0,0,0,0,0,0,0,0,0,0,0,0,0,0,0,0,0,0,0,0,0,0,0,0,0,0,0,0,0,0,0,0,0,0,0,0,0,0,0,0,0,0,0,0,0,0],"id":25,"left_children":[1,3,5,7,9,11,13,15,17,19,-1,21,23,25,27,29,31,33,35,-1,37,39,-1,41,43,45,-1,47,-1,-1,-1,-1,-1,-1,-1,-1,-1,-1,-1,-1,-1,-1,-1,-1,-1,-1,-1,-1,-1],"loss_changes":[4.725985E1,3.1660519E1,2.1066263E1,1.4684044E1,4.294033E1,1.553433E1,7.5516663E0,3.9867477E0,1.0969512E1,1.1541308E1,0E0,9.461106E0,4.796435E0,2.508316E0,2.097464E0,4.13998E0,3.0268173E0,1.2874298E0,1.2238695E1,0E0,3.3708E0,8.229773E0,0E0,2.537401E0,2.638297E0,2.0795975E0,0E0,1.8557189E0,0E0,0E0,0E0,0E0,0E0,0E0,0E0,0E0,0E0,0E0,0E0,0E0,0E0,0E0,0E0,0E0,0E0,0E0,0E0,0E0,0E0],"parents":[2147483647,0,0,1,1,2,2,3,3,4,4,5,5,6,6,7,7,8,8,9,9,11,11,12,12,13,13,14,14,15,15,16,16,17,17,18,18,20,20,21,21,23,23,24,24,25,25,27,27],"right_children":[2,4,6,8,10,12,14,16,18,20,-1,22,24,26,28,30,32,34,36,-1,38,40,-1,42,44,46,-1,48,-1,-1,-1,-1,-1,-1,-1,-1,-1,-1,-1,-1,-1,-1,-1,-1,-1,-1,-1,-1,-1],"split_conditions":[1.9336085E-1,1.4981929E0,1.0173256E0,6.525721E-1,5.3394866E-1,6.2658787E-1,1.4248421E0,-4.4708994E-1,5.3394866E-1,-9.0520513E-1,6.979292E-2,2.6977642E-2,-7.2067195E-1,1.9649671E0,1.6656741E0,-6.879376E-1,3.2647994E0,-1.7895743E0,5.5615854E-1,5.505438E-2,1.0173256E0,-1.0188428E-1,6.79117E-2,-7.868472E-1,4.743427E-1,1.2459644E0,-9.406775E-3,3.8367292E-1,-4.34053E-2,3.1657226E-2,-4.7373947E-2,-5.5108245E-2,1.5194068E-2,-2.731401E-3,-6.1226707E-2,1.5896492E-2,-2.1438079E-2,-4.0493384E-2,-6.5426794E-3,3.479045E-2,-1.3252637E-2,-1.8988987E-2,5.185382E-2,-1.2273388E-2,-4.976611E-2,5.538882E-2,1.7676178E-2,2.7876746E-2,-1.3921406E-2],"split_indices":[21,23,39,33,24,22,12,15,24,14,0,22,7,20,20,7,17,22,16,0,39,14,0,7,12,22,0,15,0,0,0,0,0,0,0,0,0,0,0,0,0,0,0,0,0,0,0,0,0],"split_type":[0,0,0,0,0,0,0,0,0,0,0,0,0,0,0,0,0,0,0,0,0,0,0,0,0,0,0,0,0,0,0,0,0,0,0,0,0,0,0,0,0,0,0,0,0,0,0,0,0],"sum_hessian":[3.618703E2,2.2235701E2,1.3951329E2,1.6240486E2,5.9952156E1,6.902548E1,7.048781E1,4.9576527E1,1.1282833E2,3.629297E1,2.3659187E1,4.362894E1,2.5396542E1,5.9426598E1,1.1061207E1,4.979811E0,4.4596714E1,1.3277299E1,9.955103E1,4.1119294E0,3.2181038E1,3.527616E1,8.35278E0,3.6078548E0,2.1788687E1,5.7952324E1,1.4742765E0,1.0015585E1,1.0456216E0,2.8822734E0,2.0975378E0,4.334517E1,1.2515463E0,1.1589861E0,1.2118313E1,3.3717434E1,6.5833595E1,1.9362127E1,1.2818911E1,1.6738585E1,1.8537577E1,1.6306276E0,1.9772272E0,8.739275E0,1.3049412E1,5.259374E1,5.358585E0,6.3925953E0,3.6229894E0],"tree_param":{"num_deleted":"0","num_feature":"40","num_nodes":"49","size_leaf_vector":"1"}},{"base_weights":[-4.338057E-3,-3.3209264E-1,3.4669292E-1,-5.121989E-1,1.9660273E-1,8.3370246E-2,6.212599E-2,-1.4686462E-1,-7.259532E-1,7.895794E-1,-3.2608357E-1,-1.4102241E-1,6.419642E-2,-5.955969E-1,2.8866678E-1,-8.398634E-1,-3.0791718E-1,9.234294E-1,-2.8783591E-2,-5.160948E-1,5.4322798E-2,-4.453485E-1,4.64889E-1,1.7790888E-2,-4.3364905E-2,-5.4102866E-3,6.258538E-2,-5.1981602E-2,-3.2474846E-2,-2.9536951E-2,3.0651478E-2,5.2121393E-2,-1.8374523E-2,-4.210658E-3,-5.1849905E-2,-2.5396948E-3,-4.3774493E-2,3.6322713E-2,-2.0646947E-2],"categories":[],"categories_nodes":[],"categories_segments":[],"categories_sizes":[],"default_left":[0,0,0,0,0,0,0,0,0,0,0,0,0,0,0,0,0,0,0,0,0,0,0,0,0,0,0,0,0,0,0,0,0,0,0,0,0,0,0],"id":26,"left_children":[1,3,5,7,9,11,-1,13,15,17,19,21,-1,23,25,27,29,31,-1,33,-1,35,37,-1,-1,-1,-1,-1,-1,-1,-1,-1,-1,-1,-1,-1,-1,-1,-1],"loss_changes":[4.0877773E1,1.759612E1,3.9320824E1,1.0617317E1,1.4951581E1,3.5257015E1,0E0,1.0323548E1,3.8547516E0,4.601568E0,7.403516E0,2.094874E1,0E0,6.5519238E0,1.0160513E1,1.8078232E0,5.3115993E0,3.035017E0,0E0,5.017926E0,0E0,1.2295057E1,8.510021E0,0E0,0E0,0E0,0E0,0E0,0E0,0E0,0E0,0E0,0E0,0E0,0E0,0E0,0E0,0E0,0E0],"parents":[2147483647,0,0,1,1,2,2,3,3,4,4,5,5,7,7,8,8,9,9,10,10,11,11,13,13,14,14,15,15,16,16,17,17,19,19,21,21,22,22],"right_children":[2,4,6,8,10,12,-1,14,16,18,20,22,-1,24,26,28,30,32,-1,34,-1,36,38,-1,-1,-1,-1,-1,-1,-1,-1,-1,-1,-1,-1,-1,-1,-1,-1],"split_conditions":[1.0173256E0,1.6071422E0,9.942911E-1,6.487775E-1,5.5615854E-1,1.7749634E0,6.212599E-2,1.1812826E0,1.0612074E0,1.2286943E0,1.6724538E0,1.9336085E-1,6.419642E-2,-4.7615665E-1,6.4218295E-1,-1.3978592E-1,1.028412E0,2.0451987E0,-2.8783591E-2,-1.5392838E-1,5.4322798E-2,-1.5392838E-1,1.4248421E0,1.7790888E-2,-4.3364905E-2,-5.4102866E-3,6.258538E-2,-5.1981602E-2,-3.2474846E-2,-2.9536951E-2,3.0651478E-2,5.2121393E-2,-1.8374523E-2,-4.210658E-3,-5.1849905E-2,-2.5396948E-3,-4.3774493E-2,3.6322713E-2,-2.0646947E-2],"split_indices":[39,34,38,4,16,37,0,26,21,8,35,21,0,12,25,8,9,15,0,0,0,0,12,0,0,0,0,0,0,0,0,0,0,0,0,0,0,0,0],"split_type":[0,0,0,0,0,0,0,0,0,0,0,0,0,0,0,0,0,0,0,0,0,0,0,0,0,0,0,0,0,0,0,0,0,0,0,0,0,0,0],"sum_hessian":[3.5329752E2,1.8273416E2,1.7056335E2,1.3632474E2,4.6409424E1,1.3186708E2,3.869626E1,5.0943184E1,8.538155E1,2.1503517E1,2.4905909E1,1.1148537E2,2.0381718E1,2.4910318E1,2.6032864E1,6.630509E1,1.9076464E1,1.9859304E1,1.6442116E0,2.2468752E1,2.4371574E0,7.438808E1,3.709729E1,5.224758E0,1.968556E1,1.895496E1,7.077904E0,3.2932957E1,3.337213E1,1.4966508E1,4.1099567E0,1.8619293E1,1.2400123E0,1.2677319E1,9.791432E0,3.860775E1,3.578033E1,2.9009584E1,8.087706E0],"tree_param":{"num_deleted":"0","num_feature":"40","num_nodes":"39","size_leaf_vector":"1"}},{"base_weights":[-1.681215E-2,2.7602786E-1,-4.2805067E-1,4.6205044E-1,-4.7511277E-1,-5.094996E-1,5.6903545E-2,6.0894233E-1,-3.5119313E-1,-7.378789E-1,2.925742E-1,-7.5602524E-2,-6.751314E-1,2.536307E-1,8.639546E-1,4.329515E-1,-6.305887E-1,-8.994012E-1,-4.0240963E-3,-3.5052437E-1,9.0985894E-1,-3.702524E-1,4.47205E-1,-5.524451E-1,-1.110471E0,4.0519312E-2,-3.0712225E-3,1.721383E-2,6.496469E-2,3.459238E-2,-2.632437E-2,-4.4542428E-2,1.3604282E-2,-5.0327685E-2,-5.706195E-3,2.7320346E-2,-4.064367E-2,4.6471965E-2,-5.3149253E-2,6.144434E-2,-5.386487E-3,-3.8343016E-2,2.0646586E-3,3.8995504E-2,-1.1916075E-2,-3.640603E-2,-2.5647637E-3,-6.256726E-2,-9.137313E-3],"categories":[],"categories_nodes":[],"categories_segments":[],"categories_sizes":[],"default_left":[0,0,0,0,0,0,0,0,0,0,0,0,0,0,0,0,0,0,0,0,0,0,0,0,0,0,0,0,0,0,0,0,0,0,0,0,0,0,0,0,0,0,0,0,0,0,0,0,0],"id":27,"left_children":[1,3,5,7,9,11,-1,13,15,17,19,21,23,25,27,29,31,33,35,37,39,41,43,45,47,-1,-1,-1,-1,-1,-1,-1,-1,-1,-1,-1,-1,-1,-1,-1,-1,-1,-1,-1,-1,-1,-1,-1,-1],"loss_changes":[4.25602E1,2.906731E1,1.9062593E1,2.004184E1,8.581991E0,1.003194E1,0E0,1.2552536E1,5.975375E0,3.692461E0,4.801497E0,6.309956E0,4.8030396E0,1.0302008E1,1.7226513E1,2.0864449E0,4.518993E0,1.6672192E0,3.2702575E0,6.419006E0,1.9436135E0,4.1223574E0,3.3923945E0,6.5647697E0,2.1111794E0,0E0,0E0,0E0,0E0,0E0,0E0,0E0,0E0,0E0,0E0,0E0,0E0,0E0,0E0,0E0,0E0,0E0,0E0,0E0,0E0,0E0,0E0,0E0,0E0],"parents":[2147483647,0,0,1,1,2,2,3,3,4,4,5,5,7,7,8,8,9,9,10,10,11,11,12,12,13,13,14,14,15,15,16,16,17,17,18,18,19,19,20,20,21,21,22,22,23,23,24,24],"right_children":[2,4,6,8,10,12,-1,14,16,18,20,22,24,26,28,30,32,34,36,38,40,42,44,46,48,-1,-1,-1,-1,-1,-1,-1,-1,-1,-1,-1,-1,-1,-1,-1,-1,-1,-1,-1,-1,-1,-1,-1,-1],"split_conditions":[5.5422825E-1,1.4248421E0,1.0173256E0,1.422001E0,1.016492E0,-4.2937693E-1,5.6903545E-2,1.020243E0,-6.374315E-1,1.6071422E0,2.6977642E-2,1.6071422E0,1.366381E0,-4.2937693E-1,6.525721E-1,-3.7635782E-1,6.8375874E-1,2.3050494E0,-1.6691972E-1,-6.9228524E-1,1.0266019E0,1.1812826E0,-4.271367E-2,3.5254583E-1,1.3069334E0,4.0519312E-2,-3.0712225E-3,1.721383E-2,6.496469E-2,3.459238E-2,-2.632437E-2,-4.4542428E-2,1.3604282E-2,-5.0327685E-2,-5.706195E-3,2.7320346E-2,-4.064367E-2,4.6471965E-2,-5.3149253E-2,6.144434E-2,-5.386487E-3,-3.8343016E-2,2.0646586E-3,3.8995504E-2,-1.1916075E-2,-3.640603E-2,-2.5647637E-3,-6.256726E-2,-9.137313E-3],"split_indices":[13,12,39,6,8,20,0,32,14,34,22,34,20,20,33,0,19,31,17,4,22,26,0,19,8,0,0,0,0,0,0,0,0,0,0,0,0,0,0,0,0,0,0,0,0,0,0,0,0],"split_type":[0,0,0,0,0,0,0,0,0,0,0,0,0,0,0,0,0,0,0,0,0,0,0,0,0,0,0,0,0,0,0,0,0,0,0,0,0,0,0,0,0,0,0,0,0,0,0,0,0],"sum_hessian":[3.514294E2,2.0545511E2,1.4597432E2,1.6498169E2,4.0473423E1,1.3930032E2,6.673989E0,1.399538E2,2.5027895E1,3.0181602E1,1.029182E1,3.8886856E1,1.0041347E2,5.9310436E1,8.064335E1,6.43053E0,1.8597364E1,2.4552076E1,5.6295247E0,5.2521667E0,5.039653E0,2.5056835E1,1.383002E1,8.010694E1,2.0306528E1,2.1199224E1,3.8111214E1,3.617216E1,4.447119E1,5.3339105E0,1.0966197E0,1.4647665E1,3.9497E0,2.1846073E1,2.7060049E0,3.5425894E0,2.0869353E0,1.7482696E0,3.5038974E0,3.7568965E0,1.2827562E0,1.2547418E1,1.25094185E1,9.342297E0,4.4877234E0,6.0238537E1,1.9868406E1,1.7747852E1,2.5586762E0],"tree_param":{"num_deleted":"0","num_feature":"40","num_nodes":"49","size_leaf_vector":"1"}},{"base_weights":[8.696026E-3,3.7488788E-1,-2.7799726E-1,6.757548E-1,1.6076583E-2,-5.4186195E-1,4.6670135E-2,7.582694E-1,-6.122411E-1,-4.966624E-1,4.951807E-1,-3.1773E-1,-8.8451326E-1,4.3629065E-1,-3.294908E-1,8.4742665E-1,-1.0516331E-2,-5.2182537E-2,2.6441542E-2,6.3506943E-1,-6.885046E-1,9.446891E-2,6.286192E-2,-4.2398733E-1,6.577357E-2,-1.48274E-1,-9.6211123E-1,7.8105724E-1,-8.2713336E-2,-5.029131E-1,7.8150296E-1,4.7036428E-2,-1.548696E-2,-2.5188994E-2,3.6916424E-2,5.0930183E-2,1.5398058E-3,-9.431125E-3,-4.9589824E-2,-2.0961113E-2,2.818858E-2,3.2238454E-2,-2.6388038E-2,-3.4316186E-2,3.2512896E-2,-5.4270364E-2,-2.0650974E-2,5.5560462E-2,1.5547269E-2,-1.9513063E-2,3.8219485E-2,-3.371398E-2,1.2255429E-2,6.253096E-2,-5.201762E-3],"categories":[],"categories_nodes":[],"categories_segments":[],"categories_sizes":[],"default_left":[0,0,0,0,0,0,0,0,0,0,0,0,0,0,0,0,0,0,0,0,0,0,0,0,0,0,0,0,0,0,0,0,0,0,0,0,0,0,0,0,0,0,0,0,0,0,0,0,0,0,0,0,0,0,0],"id":28,"left_children":[1,3,5,7,9,11,13,15,17,19,21,23,25,27,29,31,33,-1,-1,35,37,39,-1,41,-1,43,45,47,49,51,53,-1,-1,-1,-1,-1,-1,-1,-1,-1,-1,-1,-1,-1,-1,-1,-1,-1,-1,-1,-1,-1,-1,-1,-1],"loss_changes":[3.687921E1,1.6640444E1,1.6905806E1,9.378006E0,1.7778875E1,8.073208E0,1.3226387E1,5.4422073E0,3.1423228E0,8.030836E0,1.0951486E1,1.2055092E1,2.2828941E0,7.987521E0,9.253305E0,6.4760666E0,3.6393375E0,0E0,0E0,1.202173E0,4.175853E0,6.105428E0,0E0,6.6702347E0,0E0,2.590127E0,1.7612915E0,3.5989952E0,4.932927E0,4.926463E0,2.725172E0,0E0,0E0,0E0,0E0,0E0,0E0,0E0,0E0,0E0,0E0,0E0,0E0,0E0,0E0,0E0,0E0,0E0,0E0,0E0,0E0,0E0,0E0,0E0,0E0],"parents":[2147483647,0,0,1,1,2,2,3,3,4,4,5,5,6,6,7,7,8,8,9,9,10,10,11,11,12,12,13,13,14,14,15,15,16,16,19,19,20,20,21,21,23,23,25,25,26,26,27,27,28,28,29,29,30,30],"right_children":[2,4,6,8,10,12,14,16,18,20,22,24,26,28,30,32,34,-1,-1,36,38,40,-1,42,-1,44,46,48,50,52,54,-1,-1,-1,-1,-1,-1,-1,-1,-1,-1,-1,-1,-1,-1,-1,-1,-1,-1,-1,-1,-1,-1,-1,-1],"split_conditions":[6.487775E-1,-1.6691972E-1,1.0173256E0,1.2369838E0,1.1812826E0,6.2658787E-1,4.9029917E-1,1.3219855E0,1.0612074E0,-4.4708994E-1,6.4218295E-1,2.6977642E-2,-1.3900633E0,3.8367292E-1,3.8264594E0,5.6003585E-2,2.9798743E-1,-5.2182537E-2,2.6441542E-2,1.7390625E-1,1.4043282E-4,3.5254583E-1,6.286192E-2,-9.0520513E-1,6.577357E-2,2.3050494E0,1.1539732E0,